{"layers": [{"units": 8, "input_shape": [7], "activation": "tanh", "weights": [[0.5578522316896828, -0.7034666714895883, 0.707150263088725, 0.636605532947798, 0.2333059725582245, -0.9510862060973362, 0.03207612751468569, 0.4190307034433738], [0.0058848382181506675, -0.41508170838649994, -0.19106166544598002, 0.4870741877869591, -0.837653980078366, -0.9795198582529066, -0.247022438919565, 0.0023938413870521202], [-0.7095717562316612, -0.9237849739315798, -0.6269164449374043, -0.48336476586802535, 0.16939686833325607, 0.8723761114764645, 0.7655851005248562, -0.7553032621603473], [-0.2812110166677593, 0.7905131130931329, 0.1608724184569581, -0.7893471782993593, 0.6897605544591936, -0.3498857432961451, 0.24320762912895266, -0.9931535443540209], [-0.41538565306506636, -0.1989996685038533, 0.8338480288623911, -0.678015188673861, 0.6011877935636567, 0.4352590119235866, 0.546221197086523, 0.6523071125060558], [-0.036142771883778346, -0.3794496164266088, -0.27102577381287674, 0.052208788226392855, -0.7887753906780335, 0.5269464448496626, -0.2937211894149505, -0.9266566725425467], [0.3495427018160724, -0.7315969875989994, 0.7361099948622976, 0.7468074436261021, 0.10531449374360036, 0.3525766271798889, -0.766305756471781, 0.29747988567592]], "bias": [-0.5503765614769844, 0.17437830005864807, -0.5315969821755548, 0.6020023680768658, 0.6618945023018243, 0.3280473580590051, 0.04544604161724175, -0.12283991368051228]}, {"units": 8, "input_shape": [8], "activation": "tanh", "weights": [[0.3333021174788515, 0.7961724969978838, 0.6914678673890478, -0.7863683815369709, 0.8383025297883626, 0.500123486973225, -0.6169320078555582, 0.24333273069748684], [0.009658917121791344, 0.6066630205296228, -0.4316977836365765, -0.12072339277165134, 0.7732865899746391, -0.726680516248686, 0.5577370125389132, -0.29658070965691663], [-0.46800310552582003, -0.7132818203873401, -0.5076742020992835, -0.7003956539145502, -0.665057983843288, 0.9709353844324198, 0.18336666048835903, 0.642025678528527], [-0.8686393944475066, 0.2861059581115202, -0.37097633519484385, 0.722033098583714, -0.3865067953310657, -0.21841072999869637, 0.48353555981464114, 0.13219567149301814], [-0.9539512859525894, -0.5500709970738709, 0.36172394846591227, -0.06496744209051153, 0.790811084422463, -0.2777417541034224, -0.6228044115018456, 0.45801954616275986], [-0.6395092675819838, 0.6615355723517842, 0.9729413151901978, -0.11888849308010574, 0.6868291313654835, -0.12992133242945347, 0.5354075017803295, 0.403038360371726], [0.4704741471646683, -0.3999631625537172, -0.8639780794238601, 0.9888410865072494, -0.7347272600417194, 0.11277111129120732, 0.6675837647323855, 0.30036065262393463], [0.1811815081663124, 0.12696542430787083, -0.2365396503095385, -0.8289335878570498, 0.14074155269299027, 0.16045104775707864, -0.09462286385332352, 0.0006734499770013613]], "bias": [-0.14688414405861594, 0.31818878764052316, 0.6814289157824769, -0.48808328306357174, -0.2327857374921265, 0.39348538936156086, 0.13274822602637082, -0.9118447302029695]}, {"units": 3, "input_shape": [8], "activation": "tanh", "weights": [[0.9533541935140613, 0.0434167097701359, -0.21186960719788228], [-0.8242699985405677, 0.6018556017186758, 0.988091134100493], [-0.5449748708512816, -0.6622936494405416, -0.4056129779540205], [0.22148039556021049, -0.59129432486195, -0.5378589585681672], [0.8172009914561438, -0.07664948937380167, -0.6616991523313533], [0.2917709019857355, 0.0947189255013885, -0.3291184408267769], [-0.08949366129628666, -0.8105464201044201, -0.01359454801200588], [-0.9407784420964045, -0.07720435112131474, 0.41231734821035837]], "bias": [-0.3614055157175591, -0.9956822676993902, -0.7292226191109641]}]}