{"layers": [{"units": 8, "input_shape": [7], "activation": "tanh", "weights": [[-0.8591710657672285, 0.9633373348239016, 0.718572113643992, -0.48854464952060295, 0.9066751870791756, -0.6957306958715539, -0.1252245215895178, 0.2652720948271432], [-0.9015116504223826, 0.9415839290189005, -0.72665369028916, 0.16401484399180566, -0.2706060597996822, 0.8820455575204147, -0.804043855516112, 0.4481350526914858], [0.31142165846139225, 0.7108704587844688, 0.21716394349914014, -0.9968442672355273, 0.06115669729942774, -0.43401119999952553, 0.8387815529955991, 0.9502119038525583], [-0.4664504633217996, -0.6020283603854188, -0.5503634317071044, -0.4764978384999645, 0.7207920334157845, -0.8215414297155412, -0.8958490818198939, 0.09956182755602927], [0.8055555583176401, -0.8529286668849185, -0.45303231663272037, -0.3460541057464215, 0.19734061895112842, 0.7733063295125202, -0.6348743565811055, 0.15889134618343315], [0.021757798192321376, 0.022719961760949037, 0.3890908528064727, 0.23193525005425464, -0.14925093610469675, 0.7341616718244655, 0.9311330431280445, 0.8036478769821533], [-0.8314802203540936, -0.8726988352715923, -0.008729665786194385, -0.6736673795376253, -0.41206651566483443, 0.34221352369903246, 0.0841186577169859, 0.6948734398032281]], "bias": [-0.0364319034593954, -0.09796203739559783, 0.12315211749844157, -0.8004237699242391, -0.3873767917862512, 0.02160438150861932, 0.5542151158011688, 0.40577541237371784]}, {"units": 8, "input_shape": [8], "activation": "tanh", "weights": [[0.2750567949480507, -0.39160979563805953, 0.8736086032342361, 0.6378655891888958, -0.4541793856344616, -0.29621095280705156, -0.5394120331377725, 0.8261545851888388], [0.010701850215546926, 0.9619770814220623, -0.9962710987194707, 0.20723736880041543, -0.8510822041637003, -0.01806691481304523, -0.5199255849737316, -0.5600211157566133], [0.49507329196919314, 0.03830813980134695, -0.992434674786983, -0.33389306770268745, 0.4555915812851261, -0.5814265180707694, -0.6444159594348708, 0.5435795856847112], [-0.11966023344876242, -0.6339903207424273, -0.031694626500459844, 0.2527805165766488, -0.817039171309963, 0.7125778872041255, 0.6303393664891335, 0.2947889219392845], [0.32877361140482053, -0.16947217367034662, -0.677892547924944, -0.06507048198110632, -0.9708482249014452, -0.5395317403335738, 0.1746021554781505, 0.4456262065766823], [-0.6235778431682448, -0.5536791512763863, -0.8921078697898994, -0.022252145637480458, 0.020279305911910184, 0.06978898298386693, 0.21371645669559447, -0.0032206656186428706], [-0.7421414749198649, -0.7242645336267766, -0.14276719478421995, -0.21560313738323167, -0.31748019843175657, -0.8831567527650135, -0.28316195627001295, 0.48580455845288806], [0.31219137589554347, -0.4350379789406178, 0.3327161383920425, -0.3422775933030606, 0.7983908433839384, 0.7593178055627507, -0.40155823430118165, -0.14369366208923284]], "bias": [0.9217283646762844, 0.8812907832579169, -0.18199709125481567, -0.19794504138858948, 0.12767937052902578, -0.2901484556516456, -0.08140344039753811, 0.12074614357488467]}, {"units": 3, "input_shape": [8], "activation": "tanh", "weights": [[-0.06566833555339713, -0.35900714014266333, -0.3045042702575156], [0.734196121326872, 0.22781257630866736, 0.11110406759362279], [0.4015477203336979, 0.7113588996108318, -0.3480421266437532], [0.26081930649122387, 0.2741394662196517, 0.09999084203427255], [-0.49207422594371986, -0.03666787994188425, 0.1746522324591191], [-0.6496205404184014, -0.9566861366514394, -0.7050913145385298], [0.0006294239866200257, 0.823445070348114, 0.07841839435853415], [-0.7612902380548499, 0.4747612111242774, 0.7083104480955333]], "bias": [-0.8823478422069697, 0.21445979557690698, -0.5441658800435185]}]}