{"layers": [{"units": 16, "input_shape": [7], "activation": "tanh", "weights": [[0.8960497875698992, 0.5247841727642659, -0.21901767694697583, 0.7006348906114084, 0.9200837184471913, 0.719082804147904, 0.6351993814199404, -0.4217805588397423, -0.2936637560995148, -0.9604056170396986, 0.16831695668398838, -0.5026209368644354, 0.5429793636908828, 0.5153785365635122, 0.5464300458222298, 0.7473387681925199], [-0.558877655266659, 0.1785511222608449, -0.8340725179033344, -0.44050480043872753, 0.48982108356547616, -0.8604406478659068, 0.594087807339563, -0.9534490506965494, 0.6816959738408876, 0.028263326011746637, -0.09781194306580399, -0.5038062080604082, 0.25177623376078695, 0.29604467626967934, 0.28116461964431627, -0.8264822845584638], [-0.20192350323887842, -0.9115280503658763, -0.018256706791765387, 0.9440420001110628, 0.6545052406832041, -0.44356640165514505, -0.7148237490207288, -0.4492049149203805, 0.6903554448001652, -0.3859340648023606, -0.1032332960914899, 0.7376473873971283, 0.4362886729141138, 0.04059856995027089, -0.006841112670375793, 0.7840097225557576], [0.20948601388578147, -0.5114162360696941, -0.5637583555566126, -0.2010102559942295, -0.7082573628167574, 0.11722479918247042, -0.20239909631096498, -0.12035407338432669, -0.7991637892021366, -0.40934029122498505, 0.5747218050764911, 0.35887544976263275, 0.29325833517019384, 0.6738552424951296, -0.1998411832283471, -0.42318621012536717], [-0.743392362212854, -0.5755999516252397, 0.3102506877910698, -0.4229896384491223, -0.6170168554950843, -0.8180517720933509, -0.5355666288132728, 0.03345133349145635, -0.0015757171781145551, -0.539385255048104, -0.9511579120551448, -0.5503815620536856, -0.2829196641224705, -0.9800930539992916, -0.27670491262264973, 0.31445520414495354], [-0.3644850594263671, -0.6204993357254189, -0.6024503315453889, -0.7929262656775553, -0.5954763740467204, 0.682938981476191, -0.14797902189035006, 0.30671409897613766, 0.5284971691938007, -0.7495366245534725, 0.16802600862064576, -0.16433560846963946, -0.41599063782953216, 0.7720888225460012, -0.6214057537833877, -0.7894096702301936], [0.23734780131935462, -0.7823989260608379, -0.2893429790740738, -0.969428444656832, -0.0700556410958002, 0.6588015425801144, -0.8546813536277884, -0.16935798464945928, 0.568833829596161, -0.4692849062910496, 0.14369490135308283, -0.8054567772881698, 0.1783360730872674, 0.12420209667047022, 0.32993734084756743, 0.10113990953562224]], "bias": [-0.5652633451108473, -0.2639207744831902, -0.20266349462147493, -0.044450857018374146, -0.9453453721321967, -0.05547470642694585, 0.5137768383201686, 0.6934472649679506, -0.8358640794608265, -0.3067943717210928, 0.33226907894064595, 0.8757686893428069, 0.8915777066169384, 0.7837159477260172, 0.6005532511534499, 0.9657869627253983]}, {"units": 16, "input_shape": [16], "activation": "tanh", "weights": [[-0.67018768802547, -0.5984587187143262, -0.22666990825535804, 0.022603366413056047, 0.6324513437450285, 0.6362901010514093, 0.4825227430606651, 0.7439482866353206, -0.2564815639746596, -0.8919282844607384, -0.23076488118011929, 0.08882087853119458, 0.48803065724992534, 0.1612108061465154, -0.8589619894746645, -0.5255462878846817], [-0.5091016638048165, 0.730287638228869, 0.8844633031762299, 0.35629638784106965, -0.09200273166171957, 0.6199915889550383, 0.9114929249149026, 0.08525721478781123, 0.2166740143392396, -0.6648584322280049, 0.40223009548366395, -0.10799707369534772, -0.5563547832155731, -0.03429078085174764, -0.21478197483109174, -0.36771630569358305], [-0.2725325098057001, -0.5098752871771453, 0.3887964435133855, -0.4581709257180513, -0.36625436760791596, -0.511100646332945, -0.33971644123878497, 0.762371274074799, 0.43140314944884084, -0.7844175341243182, 0.6219742202912515, 0.8684582536941796, 0.19914429391811672, -0.7760310344052621, 0.5894633424407032, -0.4674257325267108], [-0.1910873352909308, 0.8519580329256282, -0.18996840899433076, 0.7134309228554776, -0.9532149370043521, -0.722018525533122, 0.30898122772109415, -0.6449904681958443, 0.09574702567229676, 0.8314521675354205, -0.4328663689037042, -0.646248135468517, 0.5554152552189096, 0.2815072388069533, -0.2180021615168415, 0.0947646422202848], [-0.4037863190621964, 0.5287546839910973, -0.46565783473826583, 0.1635889733946876, -0.4784818294307913, 0.3963938310836801, -0.6589471995661522, -0.6199975483297251, -0.017590810656347378, 0.5070394270720282, -0.12468894285715426, -0.8659858379671654, -0.614147980482137, -0.056819353898518665, -0.2908909477766157, -0.22694895113598812], [0.28503114816681996, 0.723460619664549, -0.49800686650505543, -0.059263841917997384, 0.57616776415445, -0.8084582553142112, 0.8360116744957036, 0.004352515242190824, 0.10746613868844701, 0.7918939020536737, -0.4217550667465544, 0.587990626466175, -0.7945377533117812, 0.35889255965094, 0.8350031678605372, 0.14637781567889174], [0.47362750486160343, -0.3601493169928216, -0.5360067401899651, -0.5046834498572426, -0.6777158492623052, -0.19516760954217238, -0.7057155604109899, -0.8733527577468183, -0.9275129018847872, -0.12989237367588258, -0.5303555952357102, -0.49191021160175596, -0.03654633993216816, 0.671814240624506, -0.431511822346349, 0.1337460793569054], [0.2309968191086298, 0.5732632135383431, 0.39722778511151224, -0.8073190581108487, 0.7570219533017655, -0.3688782653811262, -0.5498428541647764, -0.7446362160048607, 0.5191160155120935, 0.44436816406137947, -0.7216316005722696, 0.6709201414429369, 0.6375967875581074, 0.3040502458461827, -0.15419581866969234, 0.20822157010282316], [0.6492685285213085, 0.044709955800370293, 0.7445277325307593, 0.5460343558485834, 0.5602907541142397, -0.4304218676732148, 0.26389434379187304, 0.6197717679664232, 0.08436992542336186, -0.11536072202037029, 0.736119942456154, 0.5461700569701491, -0.010013646528591602, 0.488386614909196, 0.25514428070025597, -0.549420656053216], [0.0651573704395525, 0.2049732227945984, 0.9233354038877355, -0.9989723990628339, -0.8118925844657423, -0.05183019319925197, 0.2813432729624581, -0.02773919694657656, -0.7633775127392857, 0.32668481242102376, -0.5418421125727031, 0.7200327211391924, 0.7084386670824314, 0.5366977761368346, -0.7580145897686219, -0.2735829970511703], [0.02126045083415362, 0.5588985984845003, -0.8796407955886176, 0.3935249998364403, 0.3146253130710477, -0.8255880635661508, 0.5948769121296491, 0.6338354156141983, -0.9104126001090342, -0.035295104932373755, -0.9493325850556231, 0.8914193109342421, -0.3261846784756681, -0.07536684770261548, -0.7120067087094923, -0.2708390710241786], [0.9170899954913658, -0.4039761862218523, 0.43049794733883706, -0.8544630308680263, -0.4779825502582027, -0.19816870160175726, -0.1280314889071077, -0.4027756446519939, 0.6876720808200034, -0.12060201724944042, 0.30580554503899204, -0.9706832358390955, 0.8830685099930649, 0.4638350028598024, 0.5162615358575342, -0.2155592855141939], [0.0034497054646431824, -0.10769735253810997, -0.6884433769289844, -0.1259500377196614, -0.579254411026618, 0.4754590960582219, -0.69619897034672, -0.36095693145260577, 0.898749785099417, 0.7325639428996427, 0.9015701665028355, 0.9508458622847533, 0.06085582753306462, 0.2681347062520669, 0.883586458982796, 0.1496496372460514], [-0.9331526675238846, 0.1907178798264353, 0.9493558960973547, 0.1815878826809354, -0.07875446011452603, -0.011588739147409433, -0.21938821465276415, 0.12879676852894173, 0.42957214206888295, 0.988780036008104, 0.1166098999370766, -0.32361558963157533, 0.12153414668825269, -0.39602309139330893, -0.5058993234116984, 0.18988298022749994], [-0.19964650825124286, 0.4186115968923245, -0.1046184805549164, 0.34902630444866833, -0.6483018969408572, 0.8837499558743251, -0.705599114653978, -0.9626885505745759, -0.9764417357460258, 0.007362829319524478, -0.34390613649514434, 0.9363499221745268, -0.050046654520460976, -0.8999737806893098, 0.6065834684607192, 0.48546843622553637], [0.03830543007262288, 0.29765783502198206, 0.4483142305050951, 0.3714159281291054, -0.3229458919795678, -0.9261326084386268, 0.6963522420354278, 0.5725724569000958, 0.08104612434946223, -0.8709017486895929, -0.881012207542873, 0.40856620155718426, -0.8176066218473745, 0.8105849215396552, 0.09782444600951501, -0.6183513175667679]], "bias": [0.16613880234013334, -0.4161189110512953, 0.38145363973573976, -0.36948867006714625, 0.15685080918923777, -0.7961553247849362, 0.01744562368020741, 0.07158887134120495, -0.9098418140794409, -0.8232327638159946, 0.7367618624837464, 0.12189504561689901, -0.7843481506617964, 0.846265286468666, -0.7235807997686758, 0.9457169377350294]}, {"units": 3, "input_shape": [16], "activation": "tanh", "weights": [[-0.8614128371106968, -0.1789082145694867, 0.33397008228777136], [0.16318146693692737, -0.485254312726481, 0.9320071799258753], [-0.2685855986354033, 0.3666942400089932, -0.8408506053263962], [0.9808320259886645, 0.972868606322596, -0.12082839001292367], [-0.6523682178142323, 0.6724844555126857, 0.26548950998639764], [-0.9742591045805529, 0.005739878382356789, 0.9115320627705517], [-0.27540387583585435, -0.3070694854661702, 0.08418165068225392], [0.45007203129202056, -0.4437567453666156, 0.4346555692554206], [-0.6045885824083166, 0.9248142187996504, 0.7597037965151132], [0.41789137528856224, -0.25584787355271477, -0.1542710520331565], [-0.898568667318772, -0.2502032905247178, -0.19222156882793073], [-0.23200081581885423, 0.9122043876792956, 0.27431613131248045], [0.33308959696206397, 0.9387065973521425, -0.27963960318256453], [0.8164673510163081, 0.6637365304199929, 0.9929553049444158], [-0.15237556411429942, -0.3825191622988813, -0.12043070386576682], [-0.5123842384881867, -0.533776081613416, 0.2846590588835982]], "bias": [-0.3664636731036812, 0.4594951691876932, -0.42292161401701467]}]}