{"layers": [{"units": 32, "input_shape": [8], "activation": "tanh", "weights": [[0.6534335339003947, 0.8394923446471567, 0.03286674203528417, -0.7801554610100427, 0.4781040356216193, -0.37387494725645887, -0.04993284527248476, -0.6849485837988332, 0.3252880520776982, -0.26785627701184267, 0.8044185504956023, 0.10609980640445094, 0.8460780887535579, -0.9923433698804873, 0.27238048319341024, -0.6307475301755834, 0.42177351781742756, 0.6830501869393115, -0.020274644806578035, 0.3657250654755906, -0.8094407257890248, 0.9172086303013169, -0.9711571555430865, 0.08633956040266333, 0.9209643124737152, -0.4752147311133328, -0.28202284356438456, 0.4469879823373559, 0.03905133718259779, -0.7994404832165445, -0.37974720869431855, 0.912009912537282], [-0.15076971314487975, 0.9282933143961987, 0.9424610316019311, 0.25349501242682204, 0.9005573579610491, -0.08933711686725743, -0.32020288447035106, -0.07269834755486171, 0.4838465715334024, 0.43003691960204593, -0.7499985086886916, -0.1199896716034543, 0.2697591952686591, 0.6396535529051384, 0.4860448835489206, 0.8668599554284864, 0.8280741148827362, 0.5528261918464363, -0.7597633989837176, -0.9142448229096916, 0.869067363719807, -0.6642548842535974, 0.9068805536694948, -0.8668416380428794, -0.6667766172783953, 0.6617206882295565, -0.6591852935186655, -0.8762461416440757, -0.787780122677507, -0.0466891238035414, 0.31015710338728164, 0.11658197500600465], [0.7448943858335513, 0.8147883354188037, -0.9462740292606777, -0.3763441440158328, 0.49820808325922594, -0.40648809374073114, 0.5425329875521736, -0.7553762407363622, 0.1254225596356351, 0.3923739770970567, -0.9124046696236159, 0.3345789898876055, 0.0027594654060738577, -0.5707712322399638, -0.5695336433054556, 0.8886045564385778, 0.37110358496522267, -0.18364923863766114, 0.7895885000302305, -0.4832574849264082, -0.9470955848815645, 0.6258760611614818, -0.7324574671260133, -0.8808299298187343, 0.6751879799599045, -0.8993862768666632, 0.6941357723443973, 0.4512611789156, 0.31295148958124575, -0.20376782935087, -0.1554587231629878, 0.7844484708584272], [0.12998799416843854, -0.6836904517754523, 0.3789267294599554, 0.7148089072759038, -0.22980869357278633, 0.3255853701400033, 0.4222276426387086, 0.2544955539542746, 0.47729752071445186, 0.8039640924394997, -0.22728480002074347, -0.40220582051596754, -0.8633628838213256, 0.9622325503134099, 0.8129989344434492, 0.3396670897130116, 0.5161851148220893, 0.6538358967794562, -0.09324247181365952, 0.6340520291497183, -0.924046667973579, -0.8879949175413862, 0.006170083428341799, 0.6782886630248492, -0.7670348991198808, 0.15580491761338688, -0.9517057732503167, 0.7985812834734953, -0.39487640806269964, -0.4713315822936224, 0.9488332514946987, -0.3738378579967223], [0.6885838827244681, 0.538737843363009, -0.6642468018943013, -0.012184979297911402, 0.611401195554178, 0.6030360862815423, -0.6576101674600117, -0.9299100529913218, -0.7146883956582886, 0.6373272710630218, -0.9188420553009204, -0.4389633690453001, 0.6559280394446929, -0.09714370758058322, -0.8278431186250892, -0.030844909040002477, 0.42439438858430556, 0.35326764277878353, 0.6698510082472449, 0.505892034962526, 0.5542490485885789, 0.137210949206112, 0.3941104685107111, 0.8919662833614097, -0.35659014738214045, 0.2688856065847385, 0.7994620213800754, -0.2277050887479637, 0.5337235186250187, 0.0061537638061330835, 0.9609647499838156, -0.09985166304336701], [-0.7639728977273428, 0.47642097545422635, -0.6140454366383239, 0.4280607287279634, -0.06008802371791444, 0.22508197259101248, -0.10574229963644766, -0.07343405103820322, -0.8998423562872566, -0.7427538117522776, -0.6887784826491816, -0.3912710043155576, 0.740371804572969, -0.5114676125576956, 0.7863690545104864, -0.18032361057833612, -0.6700981009132849, 0.4011257029714643, 0.024118541374670288, 0.2162095034559013, 0.7940220979299928, -0.9821856391988819, 0.33700844709908684, 0.9167025304990377, 0.2344245449666793, 0.1026445337756634, -0.2794219523634305, 0.5460218798806027, -0.8547609244805974, -0.1616067101912877, -0.022485041022092256, 0.6563299064056665], [0.42638993026737637, -0.4255289308565702, -0.18556445460464022, 0.3293260774404705, -0.7524936470522787, 0.6440084787615905, -0.5264546679425803, 0.9665165940478782, 0.679590657000825, 0.08170825005597204, 0.41643372877067564, 0.36261735919220817, 0.511976774520716, 0.8307291262431475, -0.8179157072183596, 0.9909972320711671, -0.4063564069156651, -0.6852969624337399, 0.0868718504317103, 0.13148405371527438, -0.5370525043837204, -0.8354983496360624, 0.6177530139743772, 0.21542179719690613, 0.28798335511010276, 0.4920926232065175, 0.35113207216530196, 0.9484924340990359, -0.4927529121099472, 0.3758229938870983, 0.048698373384640004, -0.07033937462926887], [0.6635867730740117, 0.699504267865888, -0.5395790113948462, -0.9969527289289366, -0.020535702213008156, -0.13457051220191496, -0.1256442313258701, -0.4200144828378596, -0.4533211906390755, 0.36481615270029466, -0.4436866470471481, -0.21497548995949334, 0.41297072291221326, 0.2764809609440897, 0.39514997598928714, -0.8724756163611578, -0.2507112028910452, -0.31526909796009117, -0.3241644139605915, -0.8110064795054426, -0.3832556166254777, -0.0525057737121859, -0.26930422813617416, 0.68909682431582, 0.13368969504798178, -0.7641038738675132, 0.5032728176615153, -0.6784880614700817, -0.8489661960395012, 0.15664511937472247, -0.4447588134262048, -0.4545874841500894]], "bias": [0.0324319023059465, -0.43895718131576666, -0.7747618900754922, -0.06411568963004033, -0.5821612393846918, 0.3561683492108909, 0.590534051340748, -0.3886700761713111, -0.35629044521192155, -0.6362300518626034, 0.07323849895208978, 0.3141443075714889, -0.43816458296724803, -0.18060046074551783, 0.24474932644069924, -0.044081805963551046, -0.28111326382338286, -0.27909537011646357, -0.8910057790728125, 0.40956201189341157, 0.744682171248777, 0.3875693581091446, 0.8490498640941617, -0.33198641141680385, -0.9213998784056181, 0.42776422701517003, 0.5969330841058491, -0.34255396726555354, 0.9392265787844052, 0.6728580387901506, 0.054540558148631124, -0.2553133385506139]}, {"units": 32, "input_shape": [32], "activation": "tanh", "weights": [[0.9696271001115897, 0.29163039486273634, -0.2821230938463657, -0.6263492795668573, -0.4032963299165604, -0.22249547514911994, 0.6144928540252637, -0.17759726731411418, -0.24217797193326374, 0.5449639274182516, -0.8649477391163061, 0.3786748909298443, -0.2623656530730627, 0.021621473573057104, 0.3928129046330149, -0.11525229520345848, 0.7392210062506648, -0.7914732951704864, 0.5299318292003881, -0.618276805161752, -0.05053640483833166, 0.0065924633901977, -0.9124785639590396, 0.9759212307476246, -0.40169191490571254, 0.03388703026934414, 0.1806394293597282, 0.14825130756657634, 0.9649352693394266, -0.6876526044029565, 0.3400118301148467, -0.4968357087201678], [-0.5540833540605208, 0.3607045880840243, 0.3617252973687177, -0.8843547849025066, -0.8089024336347925, -0.4476067498175553, -0.8606525059787593, 0.7241899559856793, -0.07512629671645144, 0.19661428131266034, 0.03454546017144855, 0.71728021078536, 0.8657382659019419, -0.8349559054157678, -0.3579944758508067, 0.03825525219462822, 0.8098588809337341, -0.03497407943600517, 0.19292221522912323, -0.45567221003552594, -0.009232238221471567, -0.6515501578280873, -0.3644348195193321, 0.2813363005953511, 0.14350615747954287, -0.7212638186719831, 0.5284925600096309, 0.11416628339758961, 0.2525394033265933, 0.8889724106954693, 0.9019391733410189, -0.6513827404290935], [0.8253038914437829, -0.3650993168760144, -0.7320865128802807, -0.426749964109556, 0.4816542913321935, -0.9349787957128506, 0.2451016378053288, 0.6686544761826225, -0.36341001217063895, 0.7431947542626882, -0.8065820715666823, 0.7636882105168215, -0.20472120625307522, -0.9758968283901257, -0.8104086447547341, 0.6760463810624504, 0.10965974455487815, -0.1629359022832768, 0.4756083645930469, -0.2745788634276034, -0.4281407789742375, 0.08936091772007848, -0.6988679505444895, 0.2447576261558122, 0.9194031109235132, -0.3052701047669639, 0.9748665824162546, -0.7814966838069175, 0.3269631118675538, -0.7507908935641554, 0.4345274493549418, -0.07323110146882428], [0.31709791608400395, -0.18686979997130826, -0.06657214246306675, 0.13356422264527712, 0.08025094021011636, 0.7657929490335742, -0.8787843489164013, 0.4223910712763723, -0.9143217594836792, 0.8371511337985835, -0.7880208343820159, 0.44575251372933367, -0.696873368942323, 0.538273199586558, -0.9620216645470001, 0.03857597122125145, -0.324898811764164, -0.4764101443804487, 0.4831977482319194, -0.41496016312237516, -0.8872937222902044, 0.40832830499017647, -0.6269092501382472, 0.9172267151146289, 0.32551111102898145, -0.9124809545510808, -0.48357486384442705, 0.2107999748231848, 0.9158745596614386, 0.8975302860503975, -0.13052250575407953, -0.555076178276205], [-0.6056350986302106, 0.8136321538455984, 0.8393111534808115, -0.13967488446298737, 0.6455816397123635, 0.9878091362861328, -0.7736550229572159, -0.5543690368056211, -0.6419851689384559, 0.6797524355733637, 0.5633896724363565, 0.38260887273598154, 0.7400048741417611, 0.5692738388458676, -0.9122048676390553, -0.6538237836524208, 0.7148525492097044, -0.3028364168334807, -0.03661274849965279, -0.03145618625399704, 0.3479428349106011, -0.4177024344812026, -0.29895339213044614, 0.8317007991123979, 0.6298196052776954, 0.9772922399399981, -0.8474887917008311, -0.1806197373600591, 0.76348417615996, 0.7416341015907233, -0.17320641050279528, 0.28936706104999455], [-0.10873388492229696, -0.7421037165609028, -0.35827449954312995, 0.45346360113027595, 0.8348074947944004, 0.44362992448418126, -0.7517506635966222, 0.5933941449294247, -0.13438279749656745, -0.5386213591780129, -0.29191776832321614, -0.8709141161861775, -0.8386014033862048, -0.47023769733449927, -0.9844193953949472, 0.773992950332187, -0.1450875304446837, -0.9174849103769314, 0.20692300059703395, 0.5893009860473115, 0.39181328239447955, 0.20365108034123902, 0.9171564245614541, 0.8999509389417197, -0.03010002444012838, -0.9862051120951254, 0.7077374686893061, 0.32208509872408064, -0.7527788813529148, 0.2511342200414981, -0.6609141395498692, -0.38679549820796], [0.6398982894396128, 0.2875415990795931, 0.9092658985139048, 0.9040701630423549, 0.2743973998562077, -0.006471762485991794, -0.057217521236469615, 0.33638026067824134, 0.23685367097849586, 0.39318134891621814, -0.1420159424867531, -0.6284371474897825, -0.6669082683615097, 0.7047114399667316, -0.6135908798571965, 0.028294908787239947, 0.32359587359512587, 0.8484176583527365, -0.37974015933180727, -0.5216766932990153, 0.9506834815274654, -0.4780408461291734, -0.18077757480467116, -0.4334708970607857, 0.2461994286073661, -0.27917560594692636, -0.4284161021209223, 0.30738186211420193, 0.5429562471978837, -0.22129116440175722, 0.24826886351077504, 0.8242111469694078], [-0.2541443039962614, 0.47714757593807144, -0.3073029075766158, 0.5194618155142177, -0.8234361388727971, -0.7855258634848037, -0.6171172212242497, -0.11747951782350974, -0.4557447687378826, -0.3089317202399873, 0.7670548155189685, 0.06713869206170009, -0.798852878594071, 0.08628434076398084, -0.7102658112417801, -0.6169993262852385, -0.7962989388851325, 0.8791473583156475, -0.24898889178179928, 0.11976252432538237, 0.713085823011983, 0.9018166080158796, -0.528271489115643, -0.15005551528612204, -0.6429045542088556, 0.8069767336147045, 0.25420377415923867, -0.3200211252623193, 0.5207144977339575, -0.11472737100820862, -0.2684709177003668, -0.771542515132287], [-0.3137898866278843, 0.7307211715488389, -0.5686425671099058, -0.39800401231315763, -0.5198222685089176, -0.6287748309919694, 0.9114299770738215, -0.4380026360089073, 0.12216280435401838, 0.7318218273472472, -0.13129048991215764, -0.21567154418851398, 0.10654373323403799, -0.40151648955360475, -0.002409076716102243, 0.35516877630385246, 0.06883225383240776, 0.8882242454873734, -0.881284267828349, -0.8035124541006593, -0.16071804348158159, -0.08293210423731656, -0.8620200225246457, 0.4432290659256626, 0.22897128397738697, 0.5513290539275999, -0.188418415357529, -0.1893443906957608, -0.489566133184439, 0.6651828893616212, -0.9974762944060798, -0.11251408007385333], [0.13301086917480798, 0.04502156868354823, -0.7692595530613786, 0.18144072258471633, 0.8124228487614262, 0.019944015195285658, -0.41022868562201187, -0.6042227052612517, 0.5832317630270629, 0.921208486773559, -0.5578055881686173, -0.041892302636993284, -0.2820334916489444, -0.14606630891171957, -0.35886799153274307, 0.4616321431118824, 0.905793374338729, -0.22502024986730307, 0.5312212191537569, -0.1098963259693444, -0.7574925723465395, 0.8478356517547367, -0.8427196511408677, -0.8635544242592366, -0.284989705590891, -0.9091156450045033, 0.9185920815070043, 0.055448528724036494, -0.7527909840468221, -0.23374450119737045, 0.20037760209569733, -0.1133993726508642], [-0.5406289289517361, -0.6451013154453633, 0.8844672045845678, -0.2007066010583749, -0.16014781743149964, -0.34263829487837794, 0.14308275270990722, 0.870641968624007, 0.4151488428792063, 0.2678905076577611, 0.26843577988960776, 0.684743547340146, -0.7609610082003231, -0.508359870381921, -0.12823235047635984, -0.35107201025517143, -0.02709893342520453, -0.7581615962443837, -0.2119876926361708, -0.9265974512554025, -0.23886672531387343, -0.660332425892435, 0.6567926906151202, 0.5689869737591409, 0.8879721266729892, -0.013554293033258613, -0.4399892321428376, -0.2734830176618095, -0.10873940738491883, -0.4222519977489916, -0.8890137162283234, -0.7647244939940063], [-0.09795866197826575, 0.35451645641163365, -0.9142010846516693, -0.6558755204167044, -0.03605433486367615, 0.8245101162201633, -0.6854521943946839, 0.5532070244049623, 0.789812528018311, -0.8807990896284972, -0.3795278040819272, -0.7281976702339412, -0.24115094328263953, 0.2466192712989883, -0.29819895407402575, 0.6277301385129352, 0.27281963342978854, 0.24264266067863272, 0.1673609455440137, -0.16987740837507959, 0.8390577258217822, 0.0041072337403875725, -0.15960573706407888, -0.07034032201167895, -0.8672426080609095, 0.6440469037031702, -0.7943868963732532, -0.7137570306949612, 0.41212448689592684, -0.3323587477433083, 0.1822410451703893, 0.060945095545956285], [0.6987661435630053, -0.6342440185589138, -0.9528773248815399, -0.852350155798576, 0.27641847014164966, 0.7303120181527294, 0.8674883119328662, 0.11636155380219804, -0.93688488071516, -0.08355009071858932, 0.14780739815349642, -0.4633634734611445, -0.22630792133945943, 0.5856083388329638, -0.43781321263365314, -0.3892702767733358, -0.18397019165797301, 0.48937089390810384, -0.6801358564083373, -0.0820824955980124, 0.7975765654317559, -0.2631823568581473, -0.9498675979728355, -0.9613965800771977, -0.3185853869054813, -0.7494592740245867, 0.47098129307487846, 0.3973388441344863, 0.5963876290897221, 0.15076078841571672, -0.3673165982258919, -0.21556047906679887], [-0.10665422524669199, 0.16548286916606036, -0.7513792641610082, 0.4774310465323204, -0.21888694199748815, 0.14981600761875358, 0.9917162292619373, 0.8410893715146617, 0.291290675010182, -0.21840676630386113, 0.38865710155181055, 0.264847786153835, 0.5152700933207153, 0.7646725591627124, -0.916444511900212, -0.439667084066212, 0.563227246470662, 0.5799037071527811, 0.4353293914463381, 0.5087698897336861, 0.913949660336419, -0.6410294554543565, -0.7042488121788515, -0.519602324487425, 0.86933877502399, 0.09423164568733688, -0.24420937738232662, 0.34440372813232933, 0.6793294559366179, 0.33165647996451963, 0.7509315329512127, -0.18548357614451416], [0.8158348290211188, -0.6950578128871532, -0.6714266955830899, 0.14585681319320853, -0.006573580461122885, 0.38794554134715886, 0.7017903212477696, 0.9306568608469634, 0.14403604165835793, -0.10705437996748635, 0.3640170934169664, -0.1273486450419843, -0.08892560281204354, -0.04355134734077204, -0.3992948351324641, 0.5661282768399973, 0.24318247422171124, -0.9508814596847497, 0.7426136007951081, 0.31890487875104045, 0.9883017201078639, 0.24685351539853362, 0.7856237344740367, -0.05875306180134032, 0.3836934334919575, -0.04583179107268176, -0.9698100454781431, 0.15721536568010208, 0.6817114256993735, 0.8266978403432974, -0.27520445847491803, 0.39346018500772595], [0.587759886536535, -0.9110298389569318, 0.4033802758243126, -0.11838913902865622, 0.21237311701525274, -0.4783959388587198, -0.24407558040353816, -0.29331914346532684, -0.6810659591369257, 0.4134774862851911, -0.30723071467999197, -0.9733919771887869, 0.6442903151079247, 0.7368730465362543, 0.9768945386500403, -0.9351982816157491, -0.7049263395976453, 0.3657742073922121, 0.9271569819263203, -0.33424213049802387, 0.9634417087387313, 0.13615438207025998, -0.8065627019644299, -0.25093223409961296, 0.39385412531330477, -0.2373128965270157, 0.8269427721064135, -0.8500906312683543, 0.0019224823640433542, -0.4738260312306344, 0.19534129580631587, 0.2825911051524812], [0.6470633791658225, -0.2711507817491392, 0.498756112339239, 0.7594240594769677, -0.5780237029873057, -0.4716063615221304, -0.4919017280961475, 0.5340621068717215, -0.5203400965666036, -0.5161444176259486, -0.8444708803124872, -0.3720981095170157, 0.918383664213789, -0.45462021891957094, -0.5960468675368678, 0.5038037028139786, 0.7690490681582778, -0.10838695077249416, 0.8804519469239382, -0.2979913937272425, -0.8816020750950166, 0.5954980904599549, -0.4039883486140936, 0.07513141276269053, 0.17785045355542772, 0.37639559018586, -0.12088660666312467, -0.7084666320720641, 0.5049360987812137, -0.4308982265247838, 0.4228621672142092, 0.3879085197982637], [0.5122527667031727, -0.8003473547570668, -0.863505887630778, -0.011839449421224169, -0.3180574976611614, 0.12777963208362264, -0.5397761540756592, -0.14725051676493583, 0.09399820466786002, -0.3802453428641528, -0.7602808913673964, 0.6071328284488897, 0.4164804253505634, 0.10827108893448356, 0.8995770392247748, -0.3055794385593409, 0.2043002181886222, 0.6531463799921138, 0.9670482695548703, 0.6758545047630831, 0.5714842964638827, -0.8567046923323003, -0.7090364001675384, -0.881082531616947, 0.6326868003827313, -0.019725162819305142, 0.10562042648782577, -0.05527578854297821, 0.30688696376674773, 0.8576485937391063, -0.5920740751320119, 0.565722416940093], [0.45791630267604533, -0.4037150371451417, -0.597241614977075, -0.6147017606648033, 0.6242260136060458, -0.27297934182669437, 0.4276332818496378, -0.29003609625129245, 0.9481930416187112, -0.3519574267000969, 0.06946877189379741, 0.9036486133648693, 0.6197923276292219, -0.9613526398574699, -0.7092926527999537, -0.5812912764784384, -0.781526582285551, -0.5090248687015448, 0.7029469242928046, 0.7205024968306213, 0.7268224553292633, 0.39351065372318716, -0.8118695019181141, -0.6612675797497558, 0.7849594777326381, 0.30765875124242137, 0.9945561025713034, -0.5856814312811289, 0.6073080681618983, 0.8529774049083279, -0.12285968195311558, -0.4733762935529149], [-0.7813912976539876, 0.9911843786073833, -0.24995838215450017, -0.5330102267992944, -0.34746446798604724, 0.748310978799873, 0.8736966346057291, -0.7385551245699675, -0.599647888783124, 0.35595482759749864, 0.6285904805748543, 0.960510439288188, -0.25438894956534175, -0.14203719174633012, -0.16308728175109888, 0.4522742877129293, -0.2942759427971091, -0.49519763212350654, 0.5134430815067563, -0.2100848005842304, 0.9348653660371453, -0.10106332671647467, 0.3412622323501153, 0.9676534653420468, -0.5794782414462296, 0.8266086494985061, -0.7810460812294107, -0.15076137734490414, -0.5117989883933767, -0.9056594396654389, -0.9142408284283825, -0.9749147330630499], [0.9290838456630837, -0.6130571123650683, -0.795394816723801, 0.9332993369625919, -0.34575512211335013, -0.11717091470205343, -0.8702829574531854, 0.32437056044467116, 0.733784430043066, -0.3114754421887427, -0.7350884294378128, -0.973991960293817, -0.8756376201738121, -0.6011461515057943, -0.7113037621753828, 0.23728072293951952, 0.3504627019599864, -0.08593955784464313, 0.32127952129930226, -0.32685422329307845, -0.7429458348862534, -0.9717741806308464, 0.453737538681628, -0.4112661981794856, 0.7341005148970059, -0.9656486883795552, -0.7995772438098496, 0.7750499992684234, 0.8981246236413587, -0.4089220563698772, 0.756165270552875, 0.24188208087826646], [-0.752027432823662, -0.14734311282708323, 0.9498775714670156, 0.8345881792093264, -0.18585447905287267, 0.6582172919889935, 0.7554826559920464, -0.5825068770558948, -0.3804600522542554, -0.5425225866053023, -0.33090922664280753, -0.43421070275939244, -0.07991040028345675, -0.27963026696516846, 0.46235438866292333, 0.7799581283286976, 0.9134414176351686, -0.00876154624581238, -0.8468359103567165, -0.7738571588643706, -0.49555288528946395, -0.16655533115864452, -0.9619798840496538, -0.2071738684819311, -0.6147483613114342, 0.4729518134262871, -0.9198930013474682, 0.7153065669555847, -0.6768461165893922, 0.10256632734961446, 0.5202379431083999, 0.6021537890229474], [-0.7784775285731766, -0.7374943325632182, -0.7260292388551808, 0.14650615955145052, -0.8028225420713282, -0.9403136501684983, -0.8346643337151831, -0.4420345482358474, -0.013447922315787952, 0.8614211628673809, 0.9163335233681742, -0.02197418672793594, 0.5356539055457525, -0.8084988918451046, -0.5252497191062773, -0.34280208569493453, -0.7625181914864265, -0.43531982030716865, 0.4525897895560431, 0.19128358370555998, 0.2759255070612523, 0.7581337761870575, -0.9333700170438162, -0.3418366857625952, 0.6386061254575015, 0.2820906337249005, 0.054553836736345396, 0.09219128155930534, -0.33843550557214885, -0.27704398158055876, 0.968784974070394, -0.8648224618826359], [0.6671778816472214, -0.04189061224965118, -0.1871434770762619, 0.15085698899373945, 0.18217551345040084, 0.9069877697070159, 0.19691584709904153, 0.1358485388292523, 0.7230399685102455, -0.9503766349594458, -0.3672836460077309, 0.8768799903131461, 0.8162713028105661, -0.5413606378783933, 0.5924979525016296, -0.1408681926446682, 0.7864230963208378, 0.7239716895755122, -0.9031943867051588, 0.9386959723654789, -0.7542284501619372, -0.5844052087080347, 0.5135288881186542, -0.6282684631547444, 0.9551189846772083, -0.3913569500702636, -0.16336014274694177, -0.16537126926615242, -0.7688527965755236, 0.15653683764147264, -0.9624980873299556, 0.10305579978162394], [-0.2514168375148331, 0.5260471243775613, -0.450265438352913, -0.6620271039122154, -0.07467664113171057, 0.9700402532565824, -0.5002623179289774, -0.7002885720441696, 0.8756445747663326, 0.847424582588614, 0.9740750693644085, 0.5998879911679253, -0.37546777848786905, -0.8365971465637483, -0.934500321670773, -0.06113626634502656, 0.9273309266327803, 0.1895667395955669, -0.45698255645096353, -0.38181421486598177, 0.3591788000143685, -0.5864457953146904, -0.8048401752772283, 0.8458667870756122, -0.3734537965274236, -0.37594903106302, -0.21012527454523267, -0.23938558354471917, -0.21901244767106287, 0.867836982612195, 0.9891776012902027, -0.9449482821344681], [0.5764716613068759, -0.14201941027336829, -0.6153726675853817, 0.07201342390238463, 0.9458177738924063, -0.16572395176883292, -0.8649270101739421, 0.1950126343908336, 0.018391031003416547, 0.9428348698159872, -0.7805115208804645, -0.2927040889128323, 0.09514297017212581, 0.32226577368503606, 0.7003379492294581, 0.39250227826505935, -0.13534709027244096, -0.9150049056012814, -0.06270921454764156, 0.03389473003431309, -0.19240399834802413, 0.31382811403932953, -0.8828297015510151, -0.9894877101274173, 0.14375041382721188, -0.5824223728917111, 0.801201040049619, -0.9280134648077811, 0.6245248247724593, -0.7382424026144865, -0.9645829454288533, -0.5134202853309253], [-0.9553955616192942, -0.7318467839709053, 0.8966057585143485, 0.9017547276016606, 0.2242453947998122, 0.08083038426046141, -0.37974175731735205, -0.749274105998915, -0.8540017434624596, -0.801953213235125, 0.8055359612352186, -0.12023654003470097, -0.11155580043182312, 0.4156193594282285, 0.9414839115095046, 0.15112765618979696, -0.5067455565296006, -0.967648047764406, 0.8326503138080199, -0.5691208255181766, 0.992412326915201, -0.08079764673327983, 0.15660207502878687, 0.16970785094533425, 0.05005310296480037, 0.135703423766659, 0.22277054654088446, -0.2024090578379234, 0.6010816206279594, -0.22580275961673912, 0.8882500706409406, -0.9416484676905053], [0.6096563327969382, -0.840035728132003, 0.6183361587366072, 0.10446056137092485, 0.531243512810009, -0.09447921014321947, -0.5518807635257974, 0.47909348152894493, 0.8298664975590857, -0.30525434195871504, -0.06620579308485697, -0.691796978909843, 0.13965011306654507, 0.5091469512616364, -0.4504197131874823, -0.03292409981010125, -0.4307164036493041, -0.1929242401252842, -0.24371948987028746, 0.9626294710806267, 0.03704532395574911, 0.4736512001377666, -0.4670463323694152, 0.31540704233546957, -0.5101224343279616, 0.3477092528803267, -0.775175084242167, -0.36232321502788967, 0.3951081154295428, 0.3902766030551339, -0.30865273974361696, -0.14463761976254474], [0.3715397405727332, -0.278692833758301, 0.5128482001941259, -0.5005016395304378, -0.4053745776922937, 0.8216607124974258, -0.38718896655333124, 0.44779896164878386, -0.9115819734242325, 0.6015565380822885, 0.9444912654108322, 0.014800206836912633, 0.04682452915519253, 0.3602157446606167, 0.9365675909197719, 0.7669038682405218, -0.41282156767515255, 0.20413057924978517, -0.18551584424570633, -0.9877197097373382, -0.8643788671058976, 0.9463206888725275, 0.39093193571729734, 0.6211847581893093, -0.8710525087529557, -0.6002537345604393, 0.4958529084529544, 0.28105830062153037, -0.5542180393694207, 0.4618893364215806, 0.08004366675400343, -0.12621942633398886], [0.7362383482485146, 0.8958641543868702, 0.8276023502133645, 0.21339116624621957, 0.03255817277606976, -0.6851492490401192, -0.7432943025685896, -0.04105925518385267, -0.39376047017246774, 0.4303576167495, -0.16484697139600102, -0.230849582768325, -0.10328961570746009, 0.6411444635135659, 0.010904191784952388, -0.4818302485029262, 0.15555380530955865, -0.6868315856518981, 0.5176125297006067, 0.5267178649837423, 0.7101959827037134, -0.8597867091507481, 0.845611623430051, -0.7010103600826065, 0.5757073520381706, 0.08186734469609869, 0.15166752879008527, 0.9213050714038518, 0.9097830175996553, -0.0072810757598626985, -0.48861414963611804, -0.9792780246102837], [0.7823851327366858, -0.18745336072974728, 0.33108854502862406, -0.5254608494551378, 0.5710901460737021, -0.6939291904434726, -0.31522723378063766, 0.9925555230772305, 0.3595466909797169, 0.4631679735071794, -0.42964670691000717, -0.8396287751036622, -0.4739711843764798, -0.22671024534544615, -0.4832440176124344, -0.6340495249748412, -0.24221427106746418, 0.371584752250242, -0.33646193975007543, -0.6966678138643523, -0.09061114686838034, 0.03677950514558903, -0.2537786900263146, 0.38646832366461004, -0.23762271936212054, 0.2418950216414022, -0.4201829631485443, -0.9237695568574971, 0.15177619454642444, -0.8640153270690412, -0.7180713562209255, -0.7075153386036215], [-0.08273533405439548, -0.9333770515544175, 0.8649876313794882, 0.7998863306689852, 0.157990727288829, -0.9724200833940118, -0.17391852177080258, -0.5501025083130642, -0.3061835218591764, 0.7449318205408837, 0.15244811842911754, 0.7029067686811967, 0.21898642909776478, 0.4388470704680263, 0.10623160359994421, 0.2796419210269563, 0.23436706603099489, -0.4291970370905349, -0.7888293822549641, 0.16124558632048336, 0.9869924534937682, 0.5564883730996422, 0.2650564198132719, -0.2613770532185291, -0.18016121888201408, -0.41129204024952637, -0.35926601559125415, 0.5229283238729159, -0.9433758355390833, -0.8117973098093885, 0.08534897746695802, 0.8552568668032925]], "bias": [-0.6074751079065448, -0.930401698457034, -0.7838728467201659, 0.045829734425160584, 0.48144065085003973, 0.23671930817423914, 0.475548363689684, -0.4636659552586313, 0.48123567363956865, -0.22222540339953456, -0.3947895480457755, -0.9029360266412614, -0.8127429738768068, -0.6443849565829749, -0.6717901479227368, 0.6095964068028799, 0.642804361017296, 0.1911439370681074, -0.953053651609693, 0.5826962089523089, 0.3256979365567356, -0.03163709790672309, 0.9237055526167635, -0.19496650087552658, 0.4703777251903809, -0.19407880144301637, 0.8675458199040409, 0.5949980308215082, 0.06989991749542934, -0.044819568523289055, -0.015360155133421927, -0.592035800181562]}, {"units": 2, "input_shape": [32], "activation": "tanh", "weights": [[-0.5494331463585793, 0.6138728917099716], [0.3574506673861626, 0.32973336318181956], [-0.4396970774410043, -0.570460832812842], [0.10944796230847809, 0.28839596938644463], [0.7167029831132132, 0.16387046923201232], [0.637919122865023, -0.14196375821038942], [-0.5886244828366731, -0.9387919854034827], [0.005938122487259001, -0.831659747825926], [-0.03187425248658382, -0.5856083221355113], [0.35889131614907344, 0.9326279511116866], [-0.6318919978145328, -0.5361941040321083], [0.788995735335428, -0.02215610288329506], [0.47640569260909493, 0.8620063145379651], [0.1203214657932612, 0.8449083463287459], [-0.3748037577173067, -0.5177601985261884], [0.9164636669111381, -0.5203090896476652], [-0.7675885528568047, -0.7690327936434969], [-0.450283900012866, -0.2902720864800552], [-0.551166336685915, 0.9891788759860496], [-0.35709086745159757, 0.25821841509642574], [0.45896635129450747, 0.988818420060404], [0.20829928035060385, -0.3472776563889781], [0.3911163490678511, -0.32612320404573425], [0.01316849700672984, -0.5543094805648259], [-0.59573977042283, 0.7911293059152951], [0.20340662054401903, 0.004191713117779106], [-0.20108004306166127, 0.6519763850809439], [-0.2560828554736614, 0.398617387438994], [-0.5811120433645782, 0.17452021069514823], [0.716813239753042, 0.06738512041797406], [0.5504783726076308, 0.5432604809488939], [-0.27119105793481224, -0.19602636996585354]], "bias": [0.6777928392747177, 0.7801450899605211]}]}