{"layers": [{"units": 16, "input_shape": [8], "activation": "tanh", "weights": [[-0.32059557787937965, -0.0273226000052742, -0.6492379459394173, 0.537677829103185, -0.4442875991761619, 0.9467953541337712, 0.7766978390406749, 0.09898385391876241, 0.9235697619343031, -0.5247995264875249, -0.745472545837147, -0.33113749452042374, 0.5340769167834749, -0.8142410915419016, 0.8398675460173481, 0.13932015415050603], [-0.9237783719353836, -0.375583658814608, 0.37993022273130683, -0.021965531118245618, -0.7121110953144354, -0.8422134286584602, -0.993302191757099, -0.4758219716283192, 0.05346931729064175, 0.6104100873577909, 0.774504945703633, -0.34500957543743027, 0.9000769576699155, 0.6201026827604545, -0.8970244532558025, -0.7140028653860526], [-0.7792910664702277, 0.3091418309882741, -0.31683372849600056, 0.6338432401259082, 0.18213165688623834, 0.43228006560793797, -0.8498046815617504, -0.9158456352384732, -0.9439702291076475, 0.2876849658148659, 0.08978346159742312, -0.9985276473113476, -0.1736492986368765, -0.37427276591904635, -0.9418527621505912, -0.5229117477855656], [-0.8545567695637748, -0.24672651822047498, -0.9582312725112836, 0.519718293491273, 0.10446223159902024, -0.2720725744506405, -0.7524147956749232, -0.18935171992943722, -0.26062174030507745, -0.2067981042135223, -0.07402050439510166, 0.15877960068244734, -0.7896090964817888, 0.6157590219554241, 0.4219242139479149, 0.7309954516754296], [0.8440494436063186, 0.981753062149094, 0.8719131504729201, -0.5387956711006887, 0.09965764937291399, -0.9543260468786552, -0.1279934491170598, -0.7431858321662674, -0.16773892672538682, 0.43863396639452557, -0.8429170903087897, -0.30276754817582807, 0.04162963439497247, -0.7172794379200991, -0.32319709530177176, -0.9697441340796271], [0.26686314617765716, -0.7994433511308918, 0.3897649966578858, 0.09632697472843588, -0.3385996827786586, -0.38153737824060885, -0.39511770023675985, -0.940456682652347, 0.8200361531389251, -0.29400009116810755, -0.3765063180665882, -0.7910413493363744, -0.41699879846064913, -0.8977964586593474, 0.7777566450587079, 0.842385007305958], [-0.7525658458390874, 0.8647664359108957, 0.4581818588380324, -0.9335194486410556, -0.05641023690677072, 0.4613788090503166, -0.7091494664319755, -0.31413579307974904, 0.7774351199132314, 0.23395247421678822, -0.8519655363339007, 0.9454957712250678, -0.3979396651116718, 0.22496734330618273, -0.9475262956777366, 0.5595594195470917], [0.9605940981624723, 0.6797731262585374, -0.87751061248535, 0.45339639778998864, 0.9814062985568077, 0.8973278830986315, 0.20990316380002927, -0.7621348397956089, -0.33273332430549196, 0.13355951003238986, 0.40800496850176504, 0.0028798232455422568, -0.24217906538421952, 0.031488000101474345, 0.791025269363147, 0.16509759113617983]], "bias": [-0.12732394905515299, 0.9609952580860464, 0.7107209004704997, 0.027435640160082597, -0.24822402722436543, 0.6129718735231895, 0.850029462842856, -0.3818087954757621, 0.29553873489756155, 0.6196653929001488, 0.047425575051723845, 0.5246112862655128, -0.9828705896773484, 0.5085823218052048, 0.14970285972018527, -0.8145956565961145]}, {"units": 4, "input_shape": [16], "activation": "tanh", "weights": [[-0.8624440829015874, -0.5598894125975606, -0.019350627474368443, 0.08452773920452872], [0.057599741832692786, -0.00017027283433823648, 0.9989436741043325, -0.9634855871206525], [-0.4937328947836481, -0.31936687942704345, 0.10863449075920473, -0.2997104796567047], [-0.9099703029611894, 0.5142503301662826, 0.5234552200541613, -0.3803967274979292], [0.7643565861518427, -0.1941405416277493, 0.33226843010161566, -0.22315239150908206], [0.46607826201760716, 0.902462340517717, 0.6882491772113093, 0.21358075053824765], [-0.2709770246987955, -0.14451035891066932, 0.9382384051075052, 0.004168148712224262], [-0.9585965991075744, 0.39593860335741526, 0.3374718530980132, 0.09922135292544998], [-0.12870969422601597, -0.947896137684209, -0.6451075419216032, -0.9943595570197865], [-0.9173123876293341, 0.6206306452943162, 0.29339973068281067, 0.3091669518507636], [0.6516804944514081, 0.001489733962496631, 0.6498657939740009, -0.5508707128236672], [0.3481702247297731, 0.6800412716444455, -0.5878605858560662, 0.45405156315555106], [-0.47847721879754923, -0.34626701093373313, 0.6061995969904053, -0.2908350009793339], [-0.4704724769604878, 0.31096688180596965, -0.4968622316198408, -0.2377904666695727], [0.9080214934920412, -0.711482098163537, 0.05573414595291992, -0.05033251771750513], [0.5475114148377698, 0.0814186356031521, 0.49813121607002797, -0.8019592393114869]], "bias": [0.1417110564522881, -0.06110088148445647, 0.7652516868350829, 0.9356685431867175]}]}