{"layers": [{"units": 16, "input_shape": [8], "activation": "tanh", "weights": [[-0.2821314212763322, 0.023454504662290043, -0.10282461514520147, 0.18219808891834188, -0.2993389599196563, 0.10881327597229196, 0.9386585846014115, -0.5270462024311124, -0.45282787413818104, -0.2818182114218566, -0.019434141066531296, -0.05963077833237951, 0.23217188665005306, -0.1400214972677034, -0.8409741751623574, -0.5890854661471532], [0.03762465731936415, -0.07105154765160493, 0.4953628010414195, -0.07797250275968182, 0.2268849518775209, 0.4333239703675289, -0.8815365646102302, -0.625092805095651, 0.808987122427844, -0.8537387879485185, 0.6774546802246002, 0.05842486616453768, 0.0006976517720047593, -0.3327964230672529, 0.7512453417521243, 0.21097915705388215], [0.19975433560872324, -0.48956533819439874, -0.2081664334024882, -0.901335531432423, -0.2031135294827806, -0.7159961054984458, 0.8436489678279566, -0.6793677396899762, -0.2508162928055655, -0.6622410076543717, -0.7954621465733926, 0.022476142929287457, -0.7717003980359605, 0.42352452536424523, -0.5067485513108514, 0.736402476120835], [0.2071179667952907, 0.47141748315970466, 0.8778681927534422, -0.3425659851552805, -0.9744079394676861, -0.4614346651624939, 0.4237047044754907, -0.9721446316300539, -0.8665922402772319, 0.12149023219903898, 0.986849349677313, 0.7453809209045301, -0.7446406345585665, -0.721937538818876, 0.8090866605176721, -0.5061235436532947], [-0.37599981348647793, 0.7157264501869016, 0.9291442132701448, 0.5078573352449234, 0.20932546750954906, 0.24679624355627472, -0.12254333063126199, 0.7724260445098767, 0.16972570849391166, -0.12191643123094487, -0.684935071966895, -0.3748848097630233, 0.6213205428278357, -0.5220333870069376, 0.8658576662973365, -0.3281159748814291], [0.7367832590409835, 0.8199888056236115, -0.2065914522862382, 0.6583224419452112, -0.5262526233456224, 0.6543064309829791, -0.7804955655887331, 0.9472993717874643, -0.11157250738387181, 0.544021034024804, 0.0722806925388757, -0.4078789672492604, -0.2811328540982896, -0.6839691776384977, 0.774213802435967, 0.8277023725435086], [0.9602114192410591, 0.10038915166248885, -0.4570930891569698, 0.6750976541650924, -0.6298994737226509, 0.558535211851428, -0.53758055244677, 0.14902154120776379, -0.28120011696353386, 0.5287463474773297, -0.7015299323267554, -0.8060397319194756, -0.6853431769235074, -0.8841026260659399, -0.30015642750226035, 0.10073498058937136], [-0.4007092648732009, -0.14065600779399934, 0.3598146041238983, 0.14008979539139266, 0.9268699005707448, 0.4728194258021019, 0.8591430284006623, 0.6570741734523695, -0.9264511639468167, -0.5434642985755362, -0.3581917589299022, -0.9031370233913736, 0.09497841752910885, -0.6176128534001346, 0.5931659610833722, -0.7549622169398527]], "bias": [0.7296995275012315, -0.829825971675437, -0.159882719233279, -0.40796150267894493, 0.4879662255490127, -0.660731835215157, -0.18830615033758713, 0.09344349658601425, -0.3727287710250229, -0.5312863027219157, 0.7115529248637047, 0.8774752010370572, -0.8625204319217996, 0.25505142200229214, 0.06312972016661167, -0.7200730681650962]}, {"units": 16, "input_shape": [16], "activation": "tanh", "weights": [[-0.6811808153795962, -0.22267608693624186, 0.980601165459333, 0.450138531803967, -0.050898917698124935, -0.8604213435423125, 0.28396341617369436, 0.1704201066198281, 0.3743002300992111, -0.9969918505862005, -0.941832033865895, 0.7883417646360007, -0.3822253818119865, 0.12222351535052378, -0.960195263893574, 0.37675093955473726], [0.164283733501847, -0.6582386529247664, 0.9009201488221892, -0.6124208884605329, 0.8807042297540422, 0.8598826991835506, 0.5965094172183469, -0.832629527138417, -0.9847088290981212, -0.456839667452547, -0.889118775298142, -0.4719309449315017, 0.5261715582759203, -0.15102211680153999, -0.6775733542899383, -0.6880404906301325], [-0.6159130670471515, -0.5407254203774188, 0.09023549938291509, -0.058911407440539465, -0.24081887119732648, -0.6221560589739139, -0.6396836319537227, -0.5103772993221212, 0.6533012058673862, 0.841809148258025, -0.5361154524394338, -0.2805292696087889, -0.05762461093749116, -0.23407400531605438, -0.15134580362826622, 0.47067569182589697], [0.12386020490185223, -0.8745778113982896, -0.47604872500878725, 0.12011624337913474, -0.9864322362512747, 0.46611018329542087, 0.4592149238420533, 0.8178308153042284, 0.17030169732019473, 0.33766407151519373, -0.9601189701513881, 0.9537092952250872, 0.7264855365128, 0.32260316448782733, -0.6391707182316941, -0.25630768246784674], [-0.9912370332582165, 0.7188425657766873, 0.9990654526165408, 0.818122969565072, 0.135389352633015, 0.6779349098931424, -0.4802939825068273, -0.6814777879901286, -0.8342163897474022, -0.9039665211433543, 0.02420711245002738, 0.8961192270665703, -0.3777446088159464, 0.9066516210447007, -0.16028109141001456, -0.2537005823659828], [-0.9648153920997438, 0.5875934350452938, 0.34651034288250915, 0.052019000130448356, 0.5778699902430182, -0.3927830203057714, -0.9582818286848371, -0.4855502660991964, -0.10514049086341659, 0.05697974633722924, -0.3069315379542674, 0.43978800535656704, 0.959306372555967, -0.40243252237358074, 0.6313301218279499, 0.08009208552084002], [-0.40860059728006304, -0.705995811854079, -0.34302033244261865, 0.20409479922109375, 0.536374038612458, -0.683258524264724, 0.7490916221005555, 0.9288128126112654, 0.662922462038875, -0.8350087309206171, -0.6308120281733096, -0.47433996826531866, -0.46039207471484334, -0.3447677392921493, 0.43397677514614963, -0.8552630374228378], [-0.4414467147564263, 0.9190883319581822, -0.1411809698749229, 0.43309877738757363, 0.4746134832610589, -0.8162465106144368, 0.6496201727696145, -0.600872305881943, 0.13051759617847813, -0.9478766875166018, -0.26988962896150714, -0.16101894013343654, -0.02667282583368258, -0.7548080408907798, -0.48220810911515555, -0.6687517642349547], [0.765044874033177, -0.6015657407958244, -0.1442519896528056, -0.947152956798393, -0.29748172021866814, -0.22846425788926705, -0.9710192452785, 0.4659611814520215, 0.02640342055121514, 0.6165145770863463, 0.42882030329758236, 0.8955152788026006, 0.2610980812579047, -0.8496245342427426, -0.27526139075975853, 0.48518123584700357], [0.9646955835479811, 0.541487565163248, -0.22071918835398363, 0.3261678098419687, 0.5138305969119843, 0.9576734689688926, -0.26125029453089454, 0.2442223570251174, -0.5188618290110809, 0.6924687566265117, 0.7220793473733118, 0.27529104340164534, 0.9014094063669855, -0.3645395347592282, 0.03927061059504133, -0.4653663027999293], [-0.8689102402459987, -0.9413421862601146, -0.08422784438132669, 0.5157384637943281, -0.6487600452370832, -0.8629046532351672, -0.6001145934851575, 0.5438839401264894, 0.3093627324175514, 0.7240353751365998, -0.779925613334419, -0.09828503633877905, -0.1601062685836263, -0.37431590827738237, 0.321589332486409, -0.8655839148580586], [0.4496116383042099, -0.21300241931824027, 0.8027357785773233, -0.740086675148236, -0.5479045152541486, -0.11116939625460565, 0.19998032216772055, 0.5392019543316149, 0.7315194824450109, -0.8291181726468713, -0.6630314477887378, -0.20704477259109733, 0.5804970990921166, -0.26158398016229256, 0.878264334241162, -0.7479891976594322], [-0.46674942130187036, 0.664672865231213, -0.3559963237966943, -0.39572045827430613, -0.14305906003608504, -0.4852021078086928, 0.5021936527947166, -0.599050904928393, -0.5981959586188825, -0.09836666855254084, -0.6955326562661666, -0.07094699187269682, -0.18465746946439943, -0.05473872065607788, 0.511340309244112, 0.9385117475815552], [0.5172776157860277, -0.29879188198360107, 0.46591609891852137, -0.3133278327566844, 0.929194506232681, -0.008034905568036876, -0.6453575567925369, 0.162186601372863, -0.6330920196477301, -0.17028227542496133, 0.8653493477690322, 0.1645171656345521, -0.6477425652716815, 0.521245119299071, 0.7884439841085218, -0.19817077890719892], [0.7179880187105376, -0.6420995973049954, 0.9262597987858054, -0.9214085898691549, 0.543766228811484, -0.18980377305072182, 0.6695248519707615, -0.7321044133451515, 0.4966658983315062, 0.6315830633292996, -0.6366652339176118, 0.46265903420481, 0.33303235796814423, 0.004115222091332527, -0.29809367166266276, 0.7539128794295946], [0.7286642398873024, 0.8845226838039022, -0.8601360622122096, 0.33170382506688334, -0.5908508019751411, 0.852576504752864, -0.9559139870620852, -0.1669157843118434, -0.8979592834225587, -0.9421234613550096, -0.8886274586986982, 0.8094220414562008, -0.7349545326926676, -0.36817702834925714, -0.46214582284784256, -0.903547386614757]], "bias": [-0.8289581648792572, 0.685546124168593, 0.9389636373208263, 0.11429235876192023, -0.0693969007919808, 0.739547717850296, -0.9795481193955031, -0.39737679480410915, 0.8916442711239199, -0.4156314574727866, -0.0972338918409168, 0.9757224353318272, 0.8987104807780868, -0.8976694623588406, -0.3276144828756802, -0.8408127744308243]}, {"units": 4, "input_shape": [16], "activation": "tanh", "weights": [[0.822938327537982, 0.07425747048183551, 0.6551866006320448, -0.625887360099999], [0.8926377250755577, -0.20047245771832078, 0.7893152378746173, -0.09929569571424923], [0.2033197319602611, -0.16791669969830858, 0.6026031583907947, -0.17114162117385545], [0.29428964357575293, 0.017861734750410196, 0.7445735668700559, -0.9701846650144743], [0.09655811628636424, -0.5444578484058187, -0.1840079668431709, -0.685714474703734], [0.1734466332051885, -0.9646806723119405, 0.7424971202901736, -0.17152088509575303], [0.8745210238733923, 0.7838540386178647, -0.12771329989307323, -0.46676821619914377], [-0.9710394509425897, 0.9243890724287303, -0.7655806818223971, -0.9538178264866262], [0.3184628756574217, 0.12717666919303294, -0.969367984142907, -0.6745930011411219], [0.6333501351196276, 0.6521741593541854, -0.704864162270439, 0.9529959254857225], [-0.8009131031167902, 0.09898493625347227, -0.07021408859715028, -0.588751537611031], [0.6991974468442907, 0.9257579597791827, 0.23832146757953843, 0.2517740872593248], [0.5017879578369706, -0.12970911417751885, 0.8561947437426072, 0.7559785968141719], [0.5496178771596956, 0.05140720514601349, -0.7342923799761447, -0.3526748020142212], [0.8204429074356003, -0.11175780513525324, -0.24362642274671664, -0.7172256083438053], [0.3306394356738527, -0.008791340085426702, 0.8539229744802141, 0.3255669207488474]], "bias": [-0.19291068534775646, -0.9305068966812446, -0.35539804437800493, -0.18956945678933468]}]}