{"layers": [{"units": 16, "input_shape": [8], "activation": "tanh", "weights": [[-0.946400439586488, 0.12307924945742732, -0.6020169386366099, -0.996180500736974, 0.5179230118953491, -0.5875042741524954, -0.41916738036765255, 0.4900987985414862, 0.09530608890017755, 0.628611941354569, 0.8231460114439038, 0.29963576505976675, 0.794077183153477, 0.7423752089610782, 0.2655825305072592, -0.9476772205117674], [-0.9189863391931861, 0.7251331449156155, -0.5527651457758276, -0.9305382630735373, 0.07851042393530938, 0.7683610057012606, -0.10315787273941646, 0.6792257765757415, 0.5196109661036874, -0.9020330198423847, -0.65751740145255, 0.9660987573854765, 0.7010638650844758, -0.31368775303678387, -0.7215110081753535, 0.08519072544367656], [0.6107385734636366, -0.5678805474110264, -0.11642814597367201, 0.7474342704540213, 0.04934541173295326, 0.9214308165962781, 0.8755184247929806, 0.4864574754129005, -0.38019063666174424, 0.5716063958979627, -0.6536907878439171, 0.6124331695190262, -0.6490540085964891, 0.5344417046906684, -0.09053441010794949, 0.33942852979535987], [0.2400620347631628, 0.5760449708424642, -0.9756415237453913, -0.6907923292539457, -0.8645456366914319, 0.15315926510383138, -0.32478974255626536, 0.8307171303683751, -0.16344939533683767, 0.585112867671052, -0.8406891268254695, -0.9676632044152407, -0.7898618608763688, 0.2004400908744366, -0.8141836648671867, 0.024822957207050633], [0.9301174629680136, -0.10329806605306291, -0.3400213311911213, -0.0008072847341300537, 0.3398658115513178, 0.901154540291893, -0.07327740085475032, -0.5986406873701486, -0.10845783967643996, 0.6010510596754715, 0.1746955211954826, 0.9485524011880007, 0.13693498584902875, -0.4175616440766583, -0.6967709121668588, -0.30282313597775623], [0.9304569345116473, 0.1482701933497883, -0.20114298325937208, -0.787492992037732, 0.11125976625021772, 0.7324336876300077, -0.02370278906137302, -0.2711051974730285, 0.2570053133737229, 0.7630821498380795, -0.7262032043353785, 0.38765492368269205, -0.39693918551686225, -0.38852292409167855, -0.9669733174170447, 0.12992363920329497], [-0.9069244305604278, 0.16429619113983795, 0.9192817708590331, -0.7085902071752164, 0.13803026537996366, 0.3529946182300896, 0.2986215971079331, -0.8128792099603199, -0.3262782121350962, 0.606100024027556, -0.5006189947466329, -0.9226563374679255, -0.5265205217321016, -0.030842186180300546, 0.11093865068866515, 0.020628225314965], [0.021851464647137053, 0.45313550271484204, -0.7123834815491326, 0.6746950743184761, -0.3549372192329725, 0.3441150667778625, 0.28005984444865484, -0.807496212782562, -0.48275466695748603, -0.2133872639282015, -0.7357890138875001, -0.7413397373410691, -0.26101891361347573, -0.01653890465064145, -0.6522795889100181, -0.5010931482573309]], "bias": [0.25554953825453497, -0.7950156275042224, -0.3149232363489334, 0.8177132505874314, 0.34414760403265343, 0.3109521152907029, 0.0705503953313058, -0.2849745545482656, 0.06479472130798936, -0.722837024288419, 0.8598606900160095, 0.5252658083026818, 0.1733807479154359, 0.8737473668808002, -0.2897903892341642, 0.8316811257103585]}, {"units": 4, "input_shape": [16], "activation": "tanh", "weights": [[-0.7359203991977765, -0.1104843879017019, 0.23706186108393146, 0.8220465344908545], [0.6728072695357026, -0.04777053934507469, -0.7797405381928728, -0.6923390897005426], [0.16649578502751017, -0.4207113460274543, 0.7823367596134907, -0.8723640804441213], [0.13201745719040137, -0.17470651286965566, 0.6395477768043885, -0.285199271304021], [-0.496826051852443, -0.007913969352836281, -0.5305186338959704, 0.7470514552042229], [-0.0003466706325538915, -0.4332079963790503, 0.27013813847208223, 0.20031056492658683], [0.38074340292917075, -0.18813627878553563, 0.29393644961504983, -0.7464898972404432], [-0.8980100453109796, 0.9942497826116217, -0.14396297511054357, -0.31452594307740145], [0.5240301404050343, -0.6417051850743756, -0.6249310826713161, -0.9011446689260354], [-0.33526107573043795, -0.7945814806272715, -0.807759913060146, -0.46838078356], [0.9563298179598259, 0.9938332686037366, 0.4434711993634137, 0.4036581386607314], [-0.676341615790375, 0.5361943802683691, 0.30828879464961867, -0.70099920809671], [-0.7815963260515078, 0.2753001433917879, 0.5262863608900363, 0.25771320976033807], [0.06440640924021768, -0.36511055475838594, 0.2745796757412553, -0.6816163708313041], [0.3678205585155536, 0.9421925755226872, 0.4826151016096967, 0.8120842017104435], [-0.7684140356472879, 0.7770822408082771, 0.24124423853648969, 0.8401298600201605]], "bias": [0.7625657463478848, -0.16987858550071144, -0.6736769848472088, 0.7372153589526462]}]}