{"layers": [{"units": 16, "input_shape": [8], "activation": "tanh", "weights": [[-0.30340067297325435, 0.9740806666786808, -0.6164338242886, -0.9784587358042676, -0.8443763857204747, -0.4856107783811878, 0.7581255932803299, 0.8192380622105908, 0.3591514596284966, 0.7664230890783374, -0.25604834926693143, -0.38016971358967155, -0.22975683126610025, -0.6799999600177218, -0.665113730099367, -0.46944830566361295], [-0.9989037710892819, -0.4816778747079651, 0.4077584014893523, 0.8865074493456355, -0.9705683888206318, 0.5043748458366111, 0.7387094080192058, -0.0469435696882583, -0.32798895549109, 0.8720786246011669, -0.39861647631186004, -0.40216750828093506, -0.5637975836825304, 0.7376859219687664, 0.05113245023964774, 0.9160847434297927], [0.7350270490382091, -0.6565739139602631, -0.09702864665654087, 0.798846548907735, 0.9828767484383099, -0.23935913676916387, -0.8036893304105348, -0.4737590730597512, 0.40796814500574685, -0.12040874240852162, 0.2617488452118466, -0.24190378559106906, -0.1509563148380395, -0.46730383810513865, 0.2816441881854552, -0.651583813754667], [-0.2143935433724069, 0.2579528139436751, -0.2784473435459629, 0.06275522350166884, 0.06328431015733438, -0.07152035621677255, 0.7466851427516839, -0.6298299285489373, -0.14074127995059493, 0.9372906265434626, -0.3912092539642156, 0.9632357299605863, -0.13979194926436778, -0.898261878479766, 0.24270680215985507, 0.3309723757230507], [-0.4964860856685225, 0.6065052179325401, -0.528804980406496, 0.11244325836196678, -0.21059933995700053, -0.6462724831985835, -0.24859537928721198, -0.38544349981728065, 0.24515498349893305, -0.6375556705778276, 0.04172849410361912, -0.4469018999347545, 0.30894563018362664, -0.7192182693392284, 0.44069745258468096, 0.5562711793057693], [-0.5879192013230143, -0.9646803733027189, 0.5857998202807908, 0.7423902694300339, -0.0156151568400551, 0.015936206081908155, -0.03430712346877862, -0.35289277990670453, 0.6687207612256185, -0.5418319666651765, 0.3163027984909532, -0.1636143896356197, 0.06296836546013718, 0.0745445258938, 0.8386507618810219, -0.13592027488966751], [-0.8999108052021865, 0.38090140362709524, -0.8904503446775487, -0.05709274590466085, -0.8910342614257898, 0.6300584963625766, 0.04714482515639884, 0.8225511126756961, 0.21280886189262316, 0.834752884640434, 0.47536886743935014, 0.8975956082913112, 0.8839444762481319, -0.862117817171963, -0.7788582049418962, 0.7306890560317549], [0.7790738496381129, -0.5163539654052165, 0.19652082874786259, -0.07964309742315234, 0.9353666296318857, -0.8667999291654991, -0.77236512654972, 0.30913166561265526, -0.5110530920167042, -0.48993600872308174, 0.22552176892165088, -0.8003197200294014, -0.2593357022047327, 0.8091286711753929, 0.7110019354323638, -0.30431424368353155]], "bias": [0.34917427316953464, -0.0617000060774775, -0.22241147494069669, -0.37004813893772814, -0.6615107479003328, -0.8301590524962459, 0.6676440013087206, 0.07355112774827588, -0.9496740579868761, -0.25278030690102815, -0.4623206764794179, 0.8334263045520496, 0.7890580950871464, -0.011232693018247364, 0.49509030542854915, -0.7394422564702448]}, {"units": 4, "input_shape": [16], "activation": "tanh", "weights": [[0.18979670781670288, 0.7310860492415427, -0.20553712427250614, -0.5341813590247695], [-0.5142924021948612, 0.5415530117194762, 0.33347748568283664, 0.8996947913979843], [-0.8880669261186658, -0.025406898627428287, 0.5861550160224789, -0.9838676584832402], [0.9808115134797355, 0.2833337474125057, -0.7480618317896981, 0.3454188843740982], [-0.800044330223115, -0.16965828778306302, -0.44461363725235836, -0.4575387514102116], [0.6278139543938985, 0.03167352727263317, -0.7486321057635152, 0.42801515669704715], [-0.7844741875571855, 0.4008429285274471, -0.6140189783985044, 0.8474777394235917], [-0.11450254794392167, 0.335217363909329, 0.37166200639125524, 0.042021144429310375], [-0.40614751063020504, 0.44798810531431354, 0.09744918710446382, -0.14776988236618704], [0.7643350903607784, 0.9459615702943986, -0.9433897000439047, -0.4160699634605747], [-0.12740944533156795, -0.8983553898984746, -0.11028904503110759, 0.2950897312929972], [0.8868330846409092, -0.9134178612026975, -0.8028265502119214, -0.0700129386816486], [-0.9948439669806199, 0.23987734019358342, -0.2650172260158752, -0.5220062594589487], [-0.0697899758801892, 0.47031101882237825, 0.657708497954105, 0.5554409483709613], [-0.5069165691677358, -0.28169159864917037, 0.6152291032554891, 0.2912657588524128], [-0.2306829319986412, -0.3058722091590247, -0.5891554928001776, 0.22818407874036262]], "bias": [0.4854217099696472, 0.21989160720431533, -0.31862859131570165, -0.1659495280173433]}]}