{"layers": [{"units": 8, "input_shape": [8], "activation": "tanh", "weights": [[-0.751403538441211, 0.3379506129508407, -0.9212789349119412, 0.90446887156081, 0.7389563337249263, 0.5196775417404658, -0.36917736989697647, -0.9641271092158141], [-0.5308566730733455, 0.6668935842643229, -0.8434589783405149, 0.11974221676477237, 0.24437551694425919, -0.2459249780285353, -0.35678811323933735, 0.08001164982940301], [-0.7769183208400616, -0.8093360717425968, 0.4333314240571433, -0.887205875902034, -0.17869278625118468, -0.8809448196000162, 0.6452967905435114, -0.33472397553771116], [-0.6985121282162674, -0.7032067751869739, 0.8688092968061991, -0.6637904391646323, -0.7524134237421243, 0.5768677124231791, -0.391854318217455, 0.40355803062421325], [0.809183027813785, -0.37288318348730964, 0.2327012270490485, -0.5990283425731213, 0.7203896146633788, 0.5642787975456505, -0.11362187898971965, 0.8899318186535283], [0.07832248082777005, 0.48755860189984324, -0.4918760904163366, -0.655936189832768, 0.5899564901710299, -0.49350078700181, 0.03785096260654819, 0.7193814485447088], [-0.48354805112194876, 0.5970085550245452, 0.6076265171414388, 0.24340826959490158, 0.5259287932878933, -0.8778918636605124, -0.23711797271978874, 0.17535947726622858], [0.943155499669154, 0.44249596734270913, 0.3160202102412699, 0.793138392311423, -0.6266955872126423, -0.487192312687623, 0.0550792244785725, 0.6916337946165458]], "bias": [-0.6093445721498307, -0.7047814242564727, -0.6316961904707037, 0.8810475311146133, -0.3879081451987856, -0.6967278071185479, 0.1739719753297353, 0.6872322865394191]}, {"units": 8, "input_shape": [8], "activation": "tanh", "weights": [[0.14406950857505385, 0.08278913202734794, -0.6698541856280542, 0.8027734315500918, 0.153948196539887, -0.4115589437346816, -0.035313911937775444, 0.8236371616537268], [-0.7983720701257426, -0.31553858013134195, 0.9489675724750171, -0.5839490141551227, -0.008562582783735673, -0.09936877496248187, -0.4314213500591946, -0.11575659505117764], [0.46650237948120243, 0.025701293768385813, 0.17789714730322226, 0.722271045542001, 0.4509262736305448, 0.9629040193901215, 0.43971392359156747, 0.8607507952611555], [0.040784163397319606, -0.08060379312845622, 0.8559387869925261, 0.4274799393320443, -0.5018761253907806, -0.15263146301317487, 0.26505970859567185, 0.2479511465062565], [-0.9135603171180269, 0.6726593159109457, 0.20522691127991388, 0.368059052371287, 0.8614207509373548, 0.48193570221185356, -0.16681247255810128, -0.9165589921155317], [-0.2669260403279716, 0.7220909829346354, 0.5748267867318655, -0.7812651118283427, -0.4154143975672957, 0.7901296631389592, 0.918274128916952, 0.5626532169693768], [0.7441887899179698, -0.7715438645414945, -0.2802341627929563, -0.5301182164889575, -0.9104967953286764, -0.5686355897625952, 0.7969609109702762, 0.3792381326502432], [-0.21311444462999063, 0.7894284823773667, 0.33359115456984756, -0.5033111391851586, 0.9805169945231451, 0.5538846195798082, -0.3403244575091995, 0.5675492815173298]], "bias": [0.4210603820527652, 0.42768917273840956, -0.4198791082544302, 0.7985020378986647, -0.9726083929546538, 0.4882785614318135, -0.33663747439479397, 0.7390978599987463]}, {"units": 2, "input_shape": [8], "activation": "tanh", "weights": [[0.09278130188030387, 0.7373916726764294], [-0.0105973763715288, 0.23855575381980243], [0.3325462344796273, -0.48036588110410117], [0.7390461755918125, 0.7506573735977633], [-0.32075416796136036, 0.5692035991352409], [-0.5985195786276962, -0.5736904791813167], [-0.6139093010778203, -0.5721578577854798], [-0.19837439515577793, 0.7600880233838212]], "bias": [0.3548431935224259, -0.1434028228585813]}]}