{"layers": [{"units": 16, "input_shape": [8], "activation": "tanh", "weights": [[0.0006635170924271794, 0.571350279003197, 0.6231970775446467, 0.18695606452504743, -0.35812374691425064, -0.8682701631825969, 0.787121966169136, -0.9715898442532807, -0.3999100494010577, -0.9421578338912819, 0.3232300699813304, -0.7256412807421482, -0.3358862660683042, 0.10439338584812563, 0.7562574792027614, -0.9560203030795684], [0.42722702206215857, -0.45005526822724407, 0.5485196340949037, 0.46837167876026786, -0.9256674762097881, -0.9921565270031429, 0.6522643684411238, -0.10973694375200149, 0.9508044382934346, 0.029780715619823983, -0.05151857164735141, 0.6509853866030859, -0.8501605161358405, 0.3001286618351342, -0.30860217593250283, 0.5180655516283912], [-0.5965714225368262, -0.6468940821895599, 0.4171272093531433, 0.8750982253127186, -0.656130083333822, 0.7209523889885259, 0.7312952548785936, -0.06464721641389626, -0.46271618408166737, 0.9324212801945704, 0.3619773249681739, -0.9269462144627578, 0.5838445366217204, -0.3713714735440501, -0.42886219836941386, -0.06172356739519658], [0.14108269567718557, 0.3297481673732887, 0.36364841120192115, 0.22642004319464148, 0.3670251883633593, 0.7677843733340348, -0.014049296704700787, 0.7278022373676116, -0.03500315024346845, 0.47423984275605635, -0.5750576254703472, 0.8324528732462106, 0.19547592486749843, -0.7477235753694325, 0.8729110606762878, -0.7141505195098905], [0.12658566547517935, 0.110396561109668, -0.8162033117474954, 0.8132143217792445, -0.1348512982134733, -0.2890909534851347, -0.09369061661705014, -0.3734229379651708, 0.9745988473858436, 0.5286930109074206, -0.6822701589730769, -0.11807964943857341, 0.3063865394869858, 0.8201612327860224, -0.6840779254648797, 0.018326120381310762], [0.298982275004287, 0.6143066547792579, -0.5454075834557719, -0.5268998813345005, 0.2725642148537941, -0.49965797538817625, -0.4514923628699774, 0.5380622918340601, -0.289199860615019, -0.6020824856479958, -0.6822081205626085, 0.7318927635434851, 0.442240479520861, 0.9630350718412701, 0.3692024605856039, -0.19556308783758003], [0.9621872322204079, -0.4917977748521889, -0.9030067121101464, 0.11498432124182845, -0.33092278035322575, 0.27811628528034227, 0.01237221177075054, 0.8782704651543087, -0.15051541584262806, 0.08148191769334501, 0.38911819331799724, -0.10997417375312057, 0.5484582029410534, 0.734999532143469, -0.8027598660213968, 0.37358861664538723], [0.6812438738589828, -0.18097508248413918, 0.712884869640477, -0.4503821109347317, -0.3966296646576304, -0.5406150752067889, 0.03372024441835064, -0.8515365268868365, 0.9616475215949514, -0.48153351271099765, -0.16821123370001367, 0.9504973422645038, 0.5809249667359533, -0.8711136521104472, 0.27297640810142854, 0.23874175266717557]], "bias": [0.08892682277731545, 0.019673135698894173, 0.9481063990714826, 0.03353122436938083, 0.8802628681422586, 0.5518479249383572, -0.10185497909189101, 0.34670273336459934, 0.17611160403037607, 0.44864788230879626, -0.26240562891565844, -0.133166233163583, -0.6775733367205081, 0.5670695672702999, 0.4528810515675785, -0.7460324751741532]}, {"units": 16, "input_shape": [16], "activation": "tanh", "weights": [[-0.721966461640851, 0.4560476563331173, -0.8537796278553202, 0.36113330460654236, -0.25492159446626705, -0.6444885513743659, -0.7107370715954613, 0.7234199275725619, -0.9322089185386928, 0.08280245253459517, -0.738078522840665, -0.14950777438855023, -0.7418927121860408, -0.6059348009309071, -0.14970494033731918, -0.35860732699496034], [-0.29602597704548295, 0.9252330461512783, -0.256755887668767, 0.07271198893092068, 0.3391871075587176, 0.8731569036266389, -0.8423569205233172, 0.2810314840579029, -0.8704169420653163, -0.6978187026169929, -0.23610010114584612, 0.8248106829793349, 0.8768789127955199, -0.04716306899044653, 0.25613531310443394, 0.5790881833937012], [0.8611370822920896, -0.13872567992203666, 0.44701415968863545, 0.39561545928909836, 0.11179769761340053, 0.5983459227112007, -0.6323514026298016, 0.0838664418248749, -0.3593455385091253, -0.5337791824281708, 0.683657411517175, -0.6457477561524847, 0.2578593911421594, 0.9065134435556395, -0.7916752066432224, -0.5766994307156328], [-0.4860829808931477, 0.5272023542734197, -0.8324571984782736, -0.7291898706216331, -0.32019950210073533, 0.342970902724413, -0.8390578994394025, -0.9325970573180205, 0.05442343280375339, 0.48995653301717934, -0.8190905145237912, 0.6303017775375532, 0.18774307407672808, 0.15499434154496794, 0.034860704713543855, -0.17407868358264356], [0.5914910691002584, 0.5505036685076921, 0.5814963166510503, 0.5613913429128494, 0.4974216394395208, -0.8574998822073088, 0.3962281938466594, -0.6219357297959356, 0.09158332398647206, 0.2491996414862141, 0.2983544906543014, 0.015144171478710833, -0.49423743008050747, -0.35435224178516256, 0.39090908783157663, 0.5307393150529935], [0.8116161362286902, 0.6793466473110223, 0.8381218781947086, 0.3036825502068117, 0.9129243030322178, 0.7995861505081174, 0.03135762768552919, -0.5943624217845838, 0.539365807583251, 0.15950826947738994, 0.7091027732992237, -0.729313688637391, 0.5767382123130291, -0.9411210444829035, 0.5214934746188848, -0.47565205402876387], [-0.6482024625807077, -0.6400008302448883, -0.7231681344787189, 0.5787492410658095, -0.6907530304060037, -0.1728076755428798, -0.3924935442720525, -0.8493602699109433, 0.8212197229376448, -0.15455315350431764, 0.5280540068374973, 0.5571215048673432, -0.22284051045227682, 0.31706830888052373, 0.11176108447385014, -0.849788819686355], [-0.7914998895957583, -0.4014313793100177, 0.3106473486391559, -0.28352643155494617, -0.6969020179995733, -0.7734926773504367, 0.2844734170054739, -0.7322928314447115, -0.24776638242952753, 0.5136298396050407, -0.5217636022359171, 0.09985271333540058, -0.1623471453549532, -0.8627583825346294, -0.2083029472225062, -0.46600518330186413], [-0.8402432075133253, 0.9924240720831083, -0.26612044742039553, 0.2509908213293821, 0.20120785221761972, -0.9350856622932842, -0.8284246391742742, 0.30183458111865313, 0.7228460640364716, 0.8965573423520194, -0.37104573928934026, 0.45534815810695384, 0.08813077144472525, 0.7971038621096995, -0.19759213700278933, 0.5718928007204227], [0.4541110545039606, 0.08246946977325065, -0.19484768347921233, 0.611449085601987, 0.7120675276340658, -0.5154493455355129, -0.42153907410115554, -0.002334145160750589, 0.8871577102525567, 0.9006199184162553, 0.5962023309997755, 0.5391035076240993, -0.5397692954360966, -0.6482988463042672, 0.2930401555034263, 0.7632079811526884], [0.6616215933619114, -0.1820204932861369, -0.6714297772541953, 0.15989278129573448, -0.33226111533855907, -0.359099396631571, -0.9453182358767189, -0.6147101820360119, -0.40730679985048956, -0.8295903021980626, -0.7087007323543781, -0.9231671683371625, -0.7640866312706545, -0.005576587315638815, -0.3491872265457099, -0.5935666338019472], [-0.5481874615373079, -0.9333410190782034, 0.2725941880333942, -0.25200818684261717, -0.569061980837384, -0.4938738546259751, 0.8408212297148971, -0.9050908345890802, 0.7020669326447557, 0.9549557745605113, 0.7741272825798722, -0.8834994758634775, -0.17487246498271825, -0.7407534425623481, -0.24677423274886823, 0.16092232069728474], [-0.6412546194090685, 0.41799794014343994, 0.8451472818044707, -0.42344434601626535, 0.5486433122055887, 0.7625568190388576, -0.4612138268204191, -0.5594824898900841, 0.36589085837337065, 0.13595281736947173, 0.2663844383899254, 0.432187501140473, -0.16215920738888512, 0.20278422730171086, -0.30135726289448184, 0.2982672647523157], [-0.4718921622334935, -0.36619732371544544, -0.7403763484909955, 0.5869236677953433, 0.01840844210328818, -0.2483033265306469, 0.6337663108140479, -0.7683367830593084, 0.4626269763986339, -0.6025933400367798, -0.9842335099464616, -0.8271894042513912, 0.3967070906272827, 0.6180952616182931, 0.8999069529452071, 0.8889689761011512], [-0.864181306638377, -0.35701996224874666, 0.9347365761159139, -0.6867417262295048, 0.9207093339881876, 0.4294342877487387, -0.14718788125230953, -0.11501081119189216, -0.8491085346209006, 0.821146609853163, -0.801499887960017, 0.15511937644910123, -0.6620807007466569, -0.811396360718196, 0.13664323037494586, -0.9089704451903862], [0.62005689416586, 0.2047489056112044, 0.3053824994030714, 0.5462466129810837, -0.19108728248154838, -0.5664263482129246, 0.867189491506507, -0.5364998471768356, -0.10655264818940813, 0.4772434808224959, -0.7073294751655366, 0.9043037797730136, 0.18958388960350936, 0.06626278447729383, 0.10408201616431612, 0.10937463379926893]], "bias": [0.8611139974200286, -0.2951472846634684, 0.032737464024175544, -0.9695744007235352, 0.3933999880409085, 0.989025802992199, -0.7806683574477347, -0.7197611314601995, -0.7704748739402694, 0.9882065569889409, 0.960149164126864, 0.07863782285357535, -0.40444868044176907, -0.4645582649280493, 0.4858347859523027, -0.338847956522186]}, {"units": 2, "input_shape": [16], "activation": "tanh", "weights": [[-0.21817180674226755, 0.36123354681098374], [-0.32814015238053185, 0.23833606859339196], [0.1682358410221323, -0.10567444894577616], [0.9479374533816864, 0.46724299595204544], [-0.1197625129841744, -0.1259734678078508], [-0.04865658139533813, -0.5214942282532415], [-0.6947390488366356, -0.6422677220901518], [-0.24861215034000983, 0.5920357457511503], [-0.7010624112293491, 0.24626338055343844], [-0.06473626743394023, 0.7530649568082151], [0.3276713299986538, 0.6801191936712216], [0.124689084640069, 0.26934457664459277], [0.34786208936733165, 0.4592675685630463], [0.6292413710962304, -0.9033110038061285], [0.9042662871064022, 0.867443540218191], [-0.7984976070871821, 0.44841677579982453]], "bias": [0.6383198948303257, 0.33986435014569016]}]}