{"layers": [{"units": 8, "input_shape": [8], "activation": "tanh", "weights": [[-0.4524412373732467, 0.5377096805836723, 0.9167902165785544, -0.5747107107016907, 0.5060092726680672, -0.43246671467610653, 0.7694009387870224, 0.3838508428700458], [0.06141008892251487, -0.9323487066733189, 0.045051809502851814, -0.1043030668980649, -0.8563035971651702, -0.7840190915593344, 0.6686674178542931, 0.9052061448907336], [0.34359835114583426, 0.1111623250954119, -0.22119467852131947, -0.29486195436868123, 0.9649681017533351, -0.34817374588467787, -0.6921802536688912, 0.07323116748395453], [0.265191025135306, -0.20477192482652828, -0.07221367266007972, 0.6373229833445637, -0.600413780842812, -0.8907356269971609, -0.313039499659828, -0.3990925041752058], [0.8122067111829634, 0.6436691766188873, -0.2647173939534089, 0.9722881162591221, 0.8580304554027878, 0.656953089400834, -0.31889749369979725, -0.20012137760770066], [0.9516925856191387, 0.19430836771976945, 0.5672121501773826, 0.3652666419234647, 0.38210608282402503, -0.26203195811799285, 0.9181643846478049, 0.45661006615780275], [0.06550679857859154, 0.48500640556994634, -0.4101112053144311, 0.6550530293691814, 0.7343556735234147, 0.013771459360635063, 0.5593666370307748, 0.1633496419852145], [0.8654877115500617, 0.39559366820627573, 0.20500227832867512, -0.3088339160126048, -0.485652673191042, 0.5436643426482701, -0.4328869704834344, 0.44576178832604607]], "bias": [-0.8489638354622611, -0.8767841392510707, -0.3269323596489999, -0.37876416298569526, 0.3277519116464924, -0.3429811231577222, 0.08602117587341174, -0.11725357323796848]}, {"units": 8, "input_shape": [8], "activation": "tanh", "weights": [[-0.13633774843747926, 0.2928726031629725, -0.5409861451691713, 0.09358094546439966, 0.47175543811364884, -0.8050139155209972, -0.7576633288250003, 0.35505294011165733], [0.7424323091692944, -0.29310275105882, 0.7714689786411439, -0.11955117028207995, -0.35615430946530924, 0.9645652599774834, 0.9225062492440399, 0.6360612266404329], [0.3982374390537824, 0.5804452741055026, -0.4292986944485049, 0.9120368902679086, -0.1564903220815821, 0.455989573628254, -0.1303661974487702, 0.8104199877074576], [-0.2734565466020804, 0.3051851292072021, 0.44095949033963056, 0.21721266385939986, 0.9418191347642897, 0.14081432238926705, 0.009948346293870092, 0.13803967148141494], [-0.0950787726375204, -0.008886577142604102, -0.5316321750495983, -0.9401728806336975, -0.18900789986323363, 0.5934703814909539, 0.36921921949599557, 0.3528616098413362], [0.5137694395088965, 0.25413006478382116, 0.7177064201100913, -0.1854089104658203, 0.9386788933229597, 0.6661149686183803, 0.6828233657224043, 0.5268855131293722], [0.9748034959277843, -0.8505181690177313, -0.2527625818475918, -0.7074253268663773, -0.8604953806915454, 0.15521793090728764, -0.4937961569888074, -0.7456745592876419], [0.08707517028671585, -0.6851961171438614, 0.6518854762484518, -0.07887566582315153, -0.35910782658706397, -0.9326337935191282, -0.7991912690868594, -0.9370782852141717]], "bias": [0.7112045675061662, -0.96073682077772, -0.2396108778423096, -0.07948802154831935, 0.9291348185925401, 0.36359967165747653, -0.7507297321412456, 0.33538475006507373]}, {"units": 2, "input_shape": [8], "activation": "tanh", "weights": [[0.390943268479357, -0.6413926938563554], [-0.9466026357858288, -0.30981148970905314], [-0.07320572256508262, 0.586055376277975], [0.6744502611874299, 0.5584235786499558], [0.48013331041157303, 0.7721646149283181], [-0.1982878184817327, -0.8382709774604578], [0.9053103775387339, 0.7197868107825918], [-0.17571341187527723, 0.8734847467493254]], "bias": [-0.6153358143159777, 0.8523058877650991]}]}