{"layers": [{"units": 8, "input_shape": [8], "activation": "tanh", "weights": [[-0.2893302054322451, 0.0036167807623583847, -0.4522041479696337, 0.7081192503404714, -0.932054725244915, -0.7711404939789834, -0.7143899411026517, 0.5254474927920991], [-0.4953445386562345, -0.5424243351982818, 0.7082649063627546, -0.3718364691561884, 0.7257848405029179, 0.17742427951808204, -0.8099743833235804, -0.05457254244642207], [-0.25533228445827083, -0.589014027044316, 0.07229253081648168, -0.7962812750135726, -0.5459135096089867, 0.7959382377872666, 0.8569925523274833, -0.7281704469395598], [0.8641032871614611, -0.03603905185472134, 0.8037981929598814, 0.45170629902903614, 0.033947831347553414, -0.04587296040516087, 0.6938022248314737, 0.7742756223501859], [0.26992194302816497, 0.5431775779314243, 0.18596596929834086, 0.5722204746838102, 0.9326197567994081, 0.3537221660326533, 0.29818662616653135, -0.6412226116903161], [0.37664314520520925, 0.7286909497412766, -0.19990509645859955, 0.9754750079933223, 0.1490319825924189, -0.06967835642393694, -0.31742217663316885, -0.39147611366894974], [-0.08501885202802772, 0.3033103321261066, -0.44160740418152766, 0.14477319193064186, 0.4222712037302203, 0.5988387942764406, -0.04883367320627241, 0.9554315194083682], [0.7999009667240979, -0.42666812692494016, 0.03422795425402847, 0.041732981622362386, -0.16901373544529275, -0.8573732907893692, 0.5970732681057047, 0.7067880033966056]], "bias": [-0.4156230208121212, -0.024388129048577678, 0.039533595237645436, -0.8060995713048797, 0.43091338852213745, 0.3974823947356503, -0.28751986823459386, 0.8529781925421618]}, {"units": 8, "input_shape": [8], "activation": "tanh", "weights": [[0.9267762676404385, -0.816623108612414, 0.5553194412822955, 0.6790281474080508, -0.8527886792541144, 0.4761270366690207, 0.3454030704434834, -0.7368585721898049], [0.7826685816201748, -0.781675062889297, -0.40288053223037923, 0.3161929434793862, 0.13293524125119172, 0.8356750630714731, 0.3347070084307846, -0.5069739263739368], [0.6632541077154126, -0.7554279704568898, 0.6572626847981167, 0.9405499656454739, 0.59282286962807, 0.21422442039829637, -0.5134272070581103, -0.4135319424457471], [0.26046229474420324, 0.2888902657754282, 0.3862447448388884, 0.5150158688812361, -0.4425461827797408, -0.8488191176915842, 0.9133312339525406, 0.9583359821222777], [0.8045304998440512, -0.9664320446080394, 0.631299128379581, 0.6830478311336192, 0.08774301757760794, 0.7942944813586574, -0.3746026177359483, -0.8229171548277912], [-0.23279290646726114, -0.3784518938882666, 0.3191003494929814, 0.3117422778132477, -0.8483381526594662, 0.250538596852357, 0.7140342759940379, -0.3806895910949386], [-0.0878208541314276, 0.6043234349223525, 0.6905153560292794, 0.05013204997772047, 0.06643152393120166, 0.7024152592134927, 0.8572188866020236, -0.17532585650638954], [-0.8152236373582049, 0.34424843022380913, 0.2604382753020327, 0.09157127595002934, 0.27318912115837723, -0.9869444018225564, 0.6606733415849657, 0.7803952764791182]], "bias": [-0.7184150084124603, 0.9680673697879123, -0.9809975016470112, 0.7827626433737862, -0.3463548064535782, 0.8067783149932475, 0.8040392106351211, 0.413355609481763]}, {"units": 2, "input_shape": [8], "activation": "tanh", "weights": [[0.04986566474207588, 0.4239222718772957], [0.9425270208881484, 0.45992975278871895], [-0.44646625052258093, 0.9942671309591378], [-0.6393220525668286, 0.9692691894057459], [-0.03981568238552535, -0.6054926409471761], [0.43967329193647986, 0.8148119902514899], [0.5616950632635476, -0.5756760576727924], [0.3430113690196115, -0.9680028400961158]], "bias": [0.39384874517311963, 0.7822701831848544]}]}