{"layers": [{"units": 16, "input_shape": [8], "activation": "tanh", "weights": [[0.713701197987312, 0.6417091398997987, -0.424363213017773, -0.3023415370054858, -0.23353894842198364, -0.8702152377101486, 0.8573789287314557, -0.09495427466863049, -0.10504328354367543, 0.8280068039112893, 0.21156672156691014, -0.5639993240753394, -0.029077559163546596, 0.6101608736950894, 0.5390113039321016, 0.5651101525027971], [-0.40600715392410947, 0.44191856941891206, 0.6447591719286103, -0.8865478676551692, -0.4293970134260823, 0.899536423888293, 0.604699787391519, -0.416681396328034, 0.2801277537997988, -0.39390231253215857, 0.6190739323692596, 0.6190394961715153, -0.09363545118247152, 0.7099554635059144, -0.4870076908507286, 0.7041256766365895], [-0.7528653878386147, 0.13550650735420855, -0.08827266422057645, 0.6833105319384485, -0.1909955161035124, 0.8849626657305287, 0.8762612986232394, -0.5503989653532391, -0.48649580018659, 0.31761269175810325, 0.48061845376146883, 0.791546918773395, -0.16371515167818895, -0.008941583444092016, 0.48029861710991417, 0.945505755862659], [-0.029174722144021503, -0.35858648774863133, 0.8798042569075382, -0.7300983134809911, -0.08045452529472863, 0.7036027242772729, -0.02010240829698673, -0.871832056859658, 0.41935632664051625, 0.12023316956492014, -0.7349258503799974, -0.17113615065084775, 0.07485702936815053, -0.5147207125865079, 0.029504726511300428, -0.3244898378476073], [-0.5889181321446797, -0.2769586052985413, 0.2457839562923183, -0.5580233402694483, -0.41832889326912315, -0.6671923747587416, -0.8099505822650443, 0.7919179926391045, -0.06598083989403003, -0.890603542744631, -0.8974813511162238, 0.5364460718360184, 0.888706390859062, 0.22868117059672377, -0.2870474185601839, 0.0965086735663847], [-0.4290089137656612, 0.7326143484557806, 0.30178312394570495, 0.4596711528526414, 0.2875190453041101, -0.6468144269584275, -0.9716277431116187, 0.5459464155780802, -0.3043596298326807, 0.6705416657230798, 0.49030162624871787, 0.7946574852216945, -0.6104072906861875, -0.2365029200021418, -0.3581828412176593, -0.8008077454240774], [0.46780010462415955, -0.025916774361215866, -0.6610824406408295, 0.8708808875197844, 0.22372204031737208, 0.31174405816973305, -0.3840741758366384, 0.06724658547700102, 0.32701312015477524, -0.4363646558456107, -0.02657969755623979, 0.8982719291557684, 0.9948604240926686, -0.40268822243466307, -0.46513183143352776, 0.4838850737989677], [-0.11505034926633106, 0.45259633221002216, -0.9729238903137765, 0.23856162623941524, -0.9037288105677692, -0.6305165778343989, 0.2235851311733248, 0.16577740991509793, 0.5837563188128423, 0.23020249721756514, -0.04794001786113533, -0.7075899465610416, 0.10903939624995229, -0.5119010536437112, 0.7989325051240483, -0.010989771490733213]], "bias": [0.32181091199812717, -0.18775812978986273, 0.9211753618032967, -0.8164691751770448, 0.3876042586627093, -0.1862413385541961, -0.17944825235277007, -0.6879954044945127, -0.16294537710719137, 0.3225389184990135, -0.9930274090535152, 0.4140609689255834, 0.28003049725500295, 0.889321296042203, -0.1760239024023964, 0.26649978150276454]}, {"units": 16, "input_shape": [16], "activation": "tanh", "weights": [[-0.2735152563359622, -0.603538467604722, 0.6181770982124064, 0.8524311181018467, 0.26282124323666944, -0.25846512691816215, -0.23833380492346046, 0.205906339653938, -0.5994214247619929, -0.7849710092944004, 0.21381255612614525, 0.8572471318618808, -0.9838464567798026, 0.39694951746084306, -0.5196567246884018, 0.08372442090779697], [0.2053635525147881, -0.3634295720304692, -0.6532011484429863, -0.45287575964682225, -0.8895595896592703, -0.06724602807342128, -0.23845491853773182, 0.7012047504061485, 0.28626292134189013, -0.4507094137847387, -0.8949963972591315, 0.4671310644779889, 0.2205527425695506, -0.26998075023621904, 0.2748137620283131, 0.16541733312227924], [0.9969838644746905, -0.676171103199416, -0.4986086841964139, 0.9843683556818792, 0.8990406916556886, -0.23730276100766567, -0.6370123013351943, 0.07737182394873621, 0.12373714729964136, -0.2254313055506154, 0.2380722537889457, 0.9230549438098674, -0.6147439235474466, 0.14019619876949618, 0.2333949223323013, -0.16700113083637347], [0.5814480650555931, 0.12287899401397895, -0.3844542820783148, -0.2739138295702277, -0.8575107215240014, 0.7253923620155995, -0.9647696964617944, 0.424532015657741, 0.6709716189747217, 0.3012917263821395, 0.37909728380979524, -0.42752373896844187, -0.2835914686571326, 0.983900265539801, 0.9230085082538624, 0.16705683378808955], [-0.6764080192265327, 0.12582244524520636, -0.47033009856572194, -0.0818067828814264, 0.9254019964143656, -0.8119896237110473, -0.011479196427214955, -0.8619260443329366, -0.8813359081784597, 0.11528079222428178, -0.9304940935284927, 0.5730424213157541, 0.9711515999648908, -0.3490971133423253, -0.24428349569606023, 0.3525015138358212], [-0.7755887440435225, -0.6838359603862771, -0.5825874195077347, 0.033058932594692614, -0.8144864724891265, 0.026369465781469925, -0.13719764375518517, -0.7473086124934141, -0.5160933014929208, 0.8177675054913436, -0.24295795685996335, 0.6261657999015757, -0.40014355513128175, 0.2672417880829552, 0.5163827615056427, -0.910157989680118], [-0.6591789149172791, -0.464099866459011, -0.29254595863174826, 0.7381909894959777, -0.2960136806733129, 0.16976939879029795, 0.8159118450975453, 0.07181077662237079, -0.6768439564744209, 0.09460083989704149, -0.4321781583785118, -0.5014896155204376, -0.4172849312867084, 0.3146440308886813, 0.6292481525357463, 0.31088524835082976], [-0.18936360683175235, -0.4279994985436464, 0.03535559411438349, -0.7370602023928925, 0.17718029461737905, 0.25567312035714207, -0.9010452068802857, 0.4260335985500099, -0.17719277494192132, 0.4659841993895968, -0.49464301068665617, 0.4101444427763632, 0.565589921750044, -0.49707961154025226, 0.5437769367907457, -0.3925235549324777], [0.4251194509758478, -0.968476967780989, -0.6362762976348078, 0.6063469740433374, 0.17219230520981132, -0.7406455470175981, -0.2066213774821004, -0.9445270181243195, -0.5920936437765862, -0.7812414030557169, 0.47851772310030727, -0.20824731482228587, -0.6481029322349321, -0.5188253933777787, -0.8517997738970584, 0.4549042617263295], [-0.6790181635279446, 0.95752927107815, -0.9732470022597823, 0.9761264096051472, 0.43530975803681704, 0.6750957137403324, -0.5298602168218005, 0.5666112553265572, -0.22508972324968068, -0.14718651044715614, -0.7417380529758988, -0.12653551594560009, -0.8179130784750217, -0.9587542073830146, -0.18873054888660623, -0.8089833191701858], [0.27895419833162416, -0.12379683967009303, -0.01232016271101588, -0.7672622483607805, -0.9738176783077943, -0.5804953834458297, 0.5051019806187089, 0.08455208123118352, -0.6192111268746598, 0.961935837675167, -0.7219028572971233, -0.5151079013059037, 0.7417361748204663, 0.768377693183733, 0.7913815743626045, 0.29786952801206645], [0.7984592286942831, 0.7045231010763147, -0.1848418959481133, -0.2505339320314208, -0.12922284320913446, 0.3090770607034099, 0.4604847033801942, -0.7089174886954039, 0.26694102584090795, -0.8216174819036495, -0.6794211087769217, 0.2831600044899911, -0.9810301112617323, 0.6071423823186368, 0.31486766447908954, -0.6715379368645489], [-0.5678574539080048, -0.6923260475004753, -0.8277679284232935, -0.9432212600175993, -0.921021532930197, -0.10606449722434474, 0.27257478914653377, -0.07524458584569382, 0.15255179202909375, -0.034834744571489384, 0.90885992253982, 0.46871483473166387, -0.727197449685459, 0.6996397823205414, -0.46760966002318227, 0.6097935142556503], [0.07154426104009981, -0.9117003353230115, 0.7074961753419671, -0.6140270843157236, -0.8438330117287434, -0.49951754474952303, -0.25886791409118537, 0.2752725018967008, -0.08963633228277623, -0.2924329495783835, -0.6916937968832744, -0.3706951052864924, 0.7956017889952431, -0.14871029726751073, 0.39641920190563007, -0.936733324097653], [0.15816926531519138, -0.8942831331624601, 0.9371039762067777, 0.5198892096875596, 0.6136815021556361, 0.8626474005266513, -0.695671876162455, 0.6653429610469299, -0.6198271610556509, -0.4815210927060283, -0.6374009856812928, -0.39974230965854196, 0.2959125452732516, 0.39149148264014366, 0.7501879827026439, -0.5390045982812579], [0.8476666763427618, -0.24896346144137982, -0.13991351608139735, -0.3525448847173811, -0.6425054815608806, -0.5749959535044091, -0.3812969634548873, 0.8581578814303588, 0.8921836187817342, -0.9658548563062157, 0.25097966745034817, 0.23612437066118797, -0.8092993745287509, -0.70512023599549, 0.44968120959483504, -0.7167767704444923]], "bias": [-0.8704281702532173, 0.3685256813758282, -0.8297464747700789, -0.055791143661481524, 0.49821707437021234, -0.7878007631501658, -0.9650888554718124, -0.6516678698446627, 0.6567631208284399, 0.367846859838753, -0.3278777727539808, -0.3754163741932637, 0.5373403600161588, -0.3200248982299094, -0.2202688192837734, -0.22649880974487746]}, {"units": 2, "input_shape": [16], "activation": "tanh", "weights": [[-0.717157836811043, 0.0653814596421185], [-0.16562818326926498, 0.10587152619760509], [-0.3592369410238436, -0.3075993760333877], [0.19332796948428066, -0.025343931300132905], [-0.38208903857743204, 0.8048777091873431], [-0.9549536187313026, -0.48871116170797824], [-0.5924904856269515, -0.6246012631921403], [0.4430254702488021, -0.48541444790559884], [0.8650983130211483, 0.5863909548083572], [0.8005829779675917, 0.649394646200929], [-0.32627165372384725, -0.16474906866535743], [-0.8461643247361335, -0.158851543024898], [-0.02081146832261238, -0.34158574402312647], [-0.0405817362528591, 0.4016572407702128], [-0.5191387123867153, 0.4975092338417346], [-0.5073596542169441, 0.4934541028005328]], "bias": [0.32249915172512256, 0.9863996873489864]}]}