{"layers": [{"units": 16, "input_shape": [8], "activation": "tanh", "weights": [[-0.7740037918470573, 0.8226329462175954, 0.6590506118267241, 0.8518053089492419, -0.40902932045091256, -0.7635227140801712, 0.4567019043302152, 0.65281104110704, -0.2668294195365386, 0.5794358923440899, -0.13422743203585807, -0.5033097266796476, -0.6011925007731249, -0.8957616669083743, 0.872275843310024, 0.9062018100592335], [0.10593840613350913, 0.9499599344522638, 0.18629051598481916, 0.20825595449377787, 0.6167977505720803, 0.5044313127762678, -0.8617810659007701, 0.25171966123380174, -0.8325654315721116, -0.3768663431923889, 0.9053141963195632, -0.671811196552748, -0.5971823839138879, 0.8564539090680376, -0.43070205474603496, 0.44571178977781245], [-0.8940958596247208, -0.24222891180892936, 0.9373095435554484, -0.06927283878923052, 0.8520658014668796, 0.3420581937900453, 0.42135913943666603, 0.5012528636389693, -0.6196286701329807, 0.3075219217115839, 0.8873115006392827, 0.770297914880822, 0.47357687081929845, 0.29022066115051537, -0.7411725702371865, -0.1120246118536179], [-0.9780320279961732, 0.9267459302828436, -0.9682731097894426, -0.827477326598689, -0.8767327104584317, 0.8521942387386425, -0.7331108186275823, 0.7116798479093431, -0.8700973553055915, -0.4158151278854967, -0.861035023709221, 0.12139723851619366, 0.7083675277708594, 0.8520431041508765, -0.0791760575779128, 0.6589289878598819], [0.9518856237460918, 0.9505003584962319, -0.5415971958016115, 0.10807835936218035, 0.7673786855744189, -0.5298695899717951, 0.17956312431991694, -0.41556366146161694, 0.7858929953844962, -0.9453526023908967, 0.4445402133626999, -0.5410558835704877, 0.5141971178542897, 0.2765754296097911, -0.007913544421200847, 0.21724839492129577], [0.9177746622317382, 0.4254200107006907, -0.47123255734508085, -0.9715639139124137, -0.14442691040732747, -0.9159159165993469, 0.5221743745738319, -0.4939550086042839, 0.6501489072998528, -0.9244136173659834, -0.6420475491727329, -0.9562466493999402, 0.951682455823714, 0.2261966512395701, 0.6229814321534104, -0.18547133240552705], [-0.9506837206165868, -0.42277018528251054, -0.5749572443445272, -0.2528091705915585, -0.6051097775943681, -0.2523328148262307, 0.7757055931528385, 0.13983990547345093, -0.9701900964528316, -0.2350998168272922, -0.6350637637441341, 0.44502517283318843, 0.6893825000482812, -0.24204054931173968, 0.9920908687406242, -0.8228889773412551], [0.4151448245965095, 0.857506719839253, 0.972271495221062, -0.6822129977807008, 0.5644181491303284, -0.6713469227112236, -0.04227928347049992, 0.020112569329090224, 0.7245910598417922, 0.015946002603744347, -0.6686862820108752, 0.10519169404254014, -0.28278892869408434, -0.09732353845334996, -0.5074667664431582, 0.31385935820533306]], "bias": [-0.28560743465433003, 0.27718480816246815, 0.48665683198374676, 0.5146541912246385, -0.8690323904041597, -0.8147443936208423, -0.9564185343594804, -0.035006199577752195, 0.08631196370450578, 0.3341053669761749, -0.3814839109523025, -0.7363824904792629, -0.337721162362554, 0.20558827878039, -0.2916077392342973, 0.3856046031392242]}, {"units": 4, "input_shape": [16], "activation": "tanh", "weights": [[0.3995989772859785, -0.9229666760679149, -0.9331498061800347, 0.7140118596237857], [0.5966007478837438, -0.2904304230823278, -0.03130379219016399, 0.9209517412355104], [-0.9174645811759339, -0.2809442760810337, -0.052788307719565664, -0.49839993778242], [-0.9758930740392326, 0.13214875683311056, 0.43918709988803095, -0.10112014000417102], [-0.06958158058116815, 0.5774735668738262, 0.579222603351671, 0.8019124836032427], [-0.7975924320650096, 0.13942837728723845, -0.6023376252046835, -0.7840420194667987], [0.13751723160741336, -0.6397956350099843, 0.36044255309312834, -0.041237148841068105], [0.7861897177797688, 0.8472631824633872, -0.5443472125663653, -0.9468523851900879], [0.014306054721643369, -0.8964195581196157, 0.8976793042726376, 0.9856968505878827], [0.4138925491601595, 0.1009319200455252, 0.2754374235939743, -0.9328247581044224], [-0.32963395094103, 0.8514527032660046, -0.141005770924727, -0.7465205359059197], [-0.3097654819001803, 0.8261933087303117, -0.17878984337212733, 0.8789199492839486], [-0.4923753179887851, -0.6514984549586367, -0.8550701173943971, -0.8540837797159226], [0.7916724032095575, 0.6462666636332164, -0.5720931205404993, 0.7845880557333711], [-0.057089660406149045, 0.5924172118075419, -0.3889219829505377, 0.18867549442922527], [0.9701634203731948, -0.38564545989998367, -0.48669873549185505, 0.9948741546860784]], "bias": [-0.29412480893421455, 0.8889937677118818, -0.2629097117845003, -0.2489972280776418]}]}